svm_type c_svc
kernel_type rbf
gamma 0.0078125
nr_class 4
total_sv 159
rho 6.16024 11.1373 -6.80077 -7.50153 -10.5051 -11.7274
label 2 1 4 3
nr_sv 72 31 42 14
SV
512 512 0 1:0.308304 2:-0.962386 3:0.0223125 4:-0.942147 5:-0.609343 6:0.765963 7:-1 8:-0.309928 9:-1 10:-0.409002 11:-0.792296 12:-1 
489.3734993464763 0 0 1:-0.994122 2:-0.549657 3:0.172646 4:-0.979042 5:-0.326894 6:-0.999199 7:0.391283 8:-0.441731 9:-0.691499 10:-0.383934 11:-0.976215 12:0.456438 
290.1975514966907 374.8996332077942 0 1:-0.0737628 2:-1 3:0.393046 4:-0.679969 5:-1 6:0.604931 7:-1 8:0.158055 9:-1 10:-0.736671 11:-0.657566 12:-1 
313.7930900905509 512 0 1:0.298868 2:-0.824381 3:-0.24926 4:-0.955937 5:-0.572961 6:-0.387435 7:0.311292 8:0.271022 9:-0.975369 10:-0.525288 11:-0.98612 12:-0.772183 
169.3392314417443 404.1906599033577 0 1:-0.246599 2:0.258658 3:-1 4:-0.248766 5:-0.996539 6:-0.158397 7:-1 8:-0.351727 9:0.092786 10:-1 11:-0.682315 12:-1 
0 512 0 1:0.0520423 2:-0.994849 3:-0.317434 4:-0.294092 5:-1 6:-0.136273 7:-0.978937 8:0.642776 9:-0.488323 10:-0.999275 11:-0.687314 12:-0.948909 
0 512 0 1:-0.175452 2:-0.3616 3:-0.961589 4:-0.0272119 5:-0.962282 6:-0.0375729 7:-0.784446 8:-0.288865 9:0.197209 10:-0.993007 11:-0.822777 12:-0.953467 
512 94.57675120933074 0 1:0.107821 2:-0.999992 3:0.135438 4:-0.990609 5:-0.763266 6:0.68932 7:-0.999431 8:-0.561796 9:-0.999915 10:-0.328505 11:-0.620954 12:-0.99748 
215.8545807269203 0 0 1:-0.570865 2:-0.947872 3:-0.0701222 4:-0.848469 5:-0.298813 6:-0.997785 7:0.00306837 8:0.538833 9:-1 10:-0.342039 11:-0.994941 12:0.249979 
512 512 0 1:0.154676 2:-1 3:-0.112951 4:-0.972593 5:-0.160177 6:-0.325844 7:-0.94947 8:0.608648 9:-0.942194 10:-0.306422 11:-0.987666 12:-0.443897 
0.03819922495161748 0.01478760356821615 0 1:-1 2:-1 3:-1 4:-1 5:-1 6:-1 7:-1 8:-1 9:-1 10:-1 11:-1 12:-1 
19.44037415987652 0 0 1:-0.973159 2:-0.0900502 3:-0.981143 4:-0.788156 5:0.330299 6:-1 7:0.206982 8:-0.982593 9:0.0308303 10:-0.83967 11:-0.98571 12:0.479933 
512 149.5701392081915 0 1:-0.908499 2:0.867154 3:-1 4:-0.581212 5:-0.0575928 6:-1 7:-0.0275798 8:-1 9:-0.0365638 10:-0.742311 11:-0.995904 12:-0.0621203 
512 341.7355747428483 0 1:-0.989038 2:0.697562 3:-1 4:-0.412327 5:-0.798368 6:-0.636838 7:0.254881 8:-1 9:-0.26969 10:-0.995182 11:-0.699833 12:-0.213606 
161.7668036066078 0 512 1:0.0295217 2:-1 3:-0.168778 4:-1 5:-0.448268 6:0.340603 7:-0.982521 8:0.119149 9:-1 10:0.117277 11:-0.885372 12:-0.900703 
512 512 0 1:-0.447396 2:-0.999623 3:1 4:-0.999966 5:-0.318766 6:-1 7:-0.610164 8:0.5245 9:-0.999903 10:-0.310394 11:-0.999998 12:-0.0246689 
159.5460038850672 0 0 1:-0.590911 2:-0.00452019 3:-0.378785 4:-0.821438 5:-0.0748486 6:-0.685189 7:-0.812933 8:-0.691939 9:-0.660515 10:-0.319981 11:-0.945205 12:0.308035 
0 462.2561817646443 0 1:-0.999877 2:0.0911649 3:-0.0632626 4:-0.98771 5:-0.514974 6:-0.81611 7:0.544424 8:-0.451774 9:-0.823692 10:-0.609214 11:-0.918834 12:0.299125 
512 450.0050996011783 512 1:-0.16608 2:-0.986401 3:-0.0593353 4:-0.987136 5:0.115686 6:-0.0884609 7:-0.962269 8:-0.26478 9:-0.924772 10:0.00486872 11:-0.984968 12:-0.340578 
0 512 0 1:-0.973297 2:-0.83326 3:0.406676 4:-0.993966 5:1 6:-0.998855 7:-0.560096 8:-0.295569 9:-1 10:-0.410452 11:-0.998424 12:0.313267 
0 5.867573467164736 210.1120675838645 1:-0.233237 2:-0.580537 3:-0.973742 4:0.0443354 5:-0.999981 6:0.245002 7:-0.999659 8:-0.803365 9:0.258983 10:-0.997986 11:-0.658122 12:-0.99998 
0 0 512 1:-0.973729 2:-0.185728 3:-0.0998103 4:-0.945287 5:-0.0122941 6:-0.845435 7:0.365584 8:-0.970136 9:-0.405823 10:-0.0262065 11:-0.996879 12:-0.458998 
0 367.947727709955 0 1:-0.215176 2:-0.99804 3:0.19252 4:-0.627605 5:-1 6:0.0153884 7:-1 8:0.98458 9:-1 10:-0.77474 11:-0.596591 12:-0.987657 
0 0 496.8938956726881 1:-0.422779 2:-0.775267 3:0.0329435 4:-0.490487 5:-0.858058 6:-0.339398 7:-0.529477 8:0.0228349 9:-0.873818 10:-0.412003 11:-0.735516 12:-0.666344 
512 511.4119484145741 512 1:-0.970972 2:-0.0175119 3:-0.0671527 4:-0.949864 5:-0.0254363 6:-0.925872 7:0.169038 8:-0.987859 9:-0.613364 10:0.0553332 11:-0.997771 12:-0.210755 
0 512 512 1:0.0158717 2:-1 3:-0.161599 4:-0.933754 5:0.12226 6:-0.506665 7:-0.670465 8:0.368663 9:-0.764291 10:-0.303185 11:-1 12:-0.66762 
0 0 6.612181774766781 1:-0.155823 2:-0.939262 3:-0.32834 4:-0.984039 5:0.046905 6:-0.539358 7:-0.547183 8:0.784117 9:-0.996435 10:-0.161599 11:-0.994728 12:-0.548843 
283.3729911232707 512 0 1:-0.999403 2:-0.11508 3:-0.374449 4:-0.743779 5:-0.071984 6:-1 7:0.247692 8:-1 9:0.0582829 10:-0.855308 11:-0.995418 12:0.356923 
186.9957182631189 512 0 1:-0.999941 2:0.83396 3:-1 4:-0.478703 5:-0.999783 6:-0.51055 7:0.702592 8:-1 9:-0.240154 10:-0.999995 11:-0.720002 12:-0.501801 
468.3501796239968 512 303.6416538501763 1:0.298868 2:-0.824381 3:-0.24926 4:-0.955937 5:-0.572961 6:-0.387435 7:0.311292 8:0.271022 9:-0.975369 10:-0.525288 11:-0.98612 12:-0.772183 
334.4404714918803 512 0 1:-0.117385 2:-0.802534 3:-0.974603 4:0.0102669 5:-0.978612 6:0.326091 7:-0.999566 8:-0.529809 9:0.329693 10:-0.988113 11:-0.751922 12:-0.997632 
0 512 0 1:-0.0102655 2:-0.552024 3:-0.21445 4:-0.821838 5:-0.457645 6:0.022903 7:-0.677185 8:0.270208 9:-0.875532 10:-0.619072 11:-0.916764 12:-0.624765 
512 0 0 1:-0.043481 2:-0.759377 3:0.213655 4:-0.979732 5:-0.46681 6:0.36183 7:-0.953352 8:-0.392808 9:-1 10:-0.201888 11:-0.783439 12:-0.932572 
0 512 0 1:-1 2:0.168738 3:-0.597693 4:-0.544423 5:-0.0144316 6:-1 7:0.391069 8:-1 9:-0.485899 10:-0.635148 11:-0.922392 12:-0.0511468 
512 0 496.9910111062901 1:-0.917364 2:-0.759338 3:0.5126 4:-0.993705 5:-0.19247 6:-1 7:0.0669246 8:-0.48449 9:-0.996509 10:0.105994 11:-0.993114 12:0.218626 
0 0 29.07136955233191 1:-0.322173 2:-0.878485 3:-0.202104 4:-0.972101 5:0.0999214 6:-0.239112 7:-0.87979 8:0.0125433 9:-0.846274 10:-0.09169 11:-0.995667 12:-0.203737 
0 0 74.27499975652486 1:-0.297086 2:-0.994465 3:0.383774 4:-0.998191 5:-0.314273 6:-0.0461578 7:-0.752376 8:-0.245464 9:-0.97932 10:-0.178622 11:-0.740269 12:-0.84139 
268.0821984672213 512 0 1:0.0697942 2:-0.965291 3:-0.135809 4:-0.98498 5:-0.122838 6:-0.443255 7:-0.912998 8:0.899277 9:-1 10:-0.385344 11:-0.987491 12:-0.355111 
512 512 512 1:-0.15754 2:-0.921604 3:-0.272646 4:-0.95833 5:0.312273 6:-0.520639 7:-0.882563 8:0.241483 9:-1 10:-0.13939 11:-0.9833 12:-0.277271 
145.6271918489578 0 0 1:-0.412116 2:-0.813104 3:-0.284724 4:-0.581999 5:-0.999975 6:0.289618 7:-0.155875 8:-0.0997303 9:-1 10:-0.711487 11:-0.667585 12:-0.579237 
0 512 0 1:-0.521386 2:-0.909642 3:-0.46165 4:-0.161055 5:-0.874356 6:-0.39828 7:-0.501083 8:0.113789 9:-0.489396 10:-0.927709 11:-0.606463 12:-0.661965 
512 512 512 1:-0.251202 2:-0.973486 3:-0.263128 4:-0.884009 5:-0.0784713 6:-0.984559 7:-0.173482 8:0.568766 9:-0.99144 10:-0.286066 11:-0.999998 12:-0.0756867 
0 0 10.85032158267649 1:-0.664084 2:-0.537849 3:0.100516 4:-0.908739 5:-0.400789 6:-0.725935 7:0.149013 8:-0.215086 9:-0.882407 10:-0.333001 11:-0.807396 12:-0.507754 
15.19473336862058 512 0 1:-0.254557 2:-0.964623 3:-0.445377 4:0.0837291 5:-1 6:-0.505086 7:-0.722574 8:0.330973 9:-0.338412 10:-0.995972 11:-0.65644 12:-0.951105 
234.2943159189142 0 0 1:-0.539484 2:-0.705142 3:0.539437 4:-0.961532 5:-0.705222 6:-0.0573623 7:-0.278333 8:-0.291819 9:-1 10:-0.346056 11:-0.759992 12:-0.648828 
0 453.6914852143263 0 1:-0.534977 2:-0.917637 3:-0.425451 4:0.0469353 5:-0.979731 6:0.00333066 7:-0.892319 8:-0.0430241 9:-0.47303 10:-0.898507 11:-0.556249 12:-0.936077 
497.9903083969971 0 125.5001179656296 1:-0.982829 2:0.694803 3:-0.845509 4:-0.555262 5:-0.560782 6:-1 7:0.0340863 8:-0.998099 9:0.245717 10:-0.658178 11:-0.849456 12:-0.439492 
512 512 0 1:-0.516473 2:-0.640399 3:-0.67136 4:-0.861083 5:-0.0162336 6:-0.58113 7:0.254859 8:-0.274498 9:-0.84498 10:-0.646336 11:-0.955918 12:0.286763 
120.3082241895064 279.1849985626477 85.35262688763511 1:-1 2:-1 3:-0.963616 4:-1 5:-1 6:-1 7:-1 8:-1 9:-1 10:-1 11:1 12:-1 
512 512 0 1:0.0537225 2:-0.548119 3:-0.503112 4:-0.860533 5:-0.32805 6:-0.209615 7:-0.869472 8:0.225755 9:-0.671011 10:-0.415311 11:-0.929024 12:-0.582134 
0 512 0 1:-0.0938618 2:-0.786775 3:-0.230671 4:-0.985838 5:-0.0686162 6:0.0316675 7:-0.40276 8:0.186386 9:-0.910881 10:-0.470559 11:-0.978105 12:-0.644178 
512 0 0 1:-0.456811 2:-0.965676 3:0.290649 4:-0.919076 5:-0.614358 6:-0.918732 7:0.0393128 8:0.421987 9:-1 10:-0.468701 11:-0.965698 12:0.291988 
0 512 0 1:-0.0219739 2:-0.65409 3:-0.115772 4:-0.889898 5:-0.260897 6:-0.306616 7:-0.62376 8:0.0948414 9:-0.758302 10:-0.442681 11:-0.922759 12:-0.69804 
0 512 0 1:-0.321778 2:-0.860781 3:0.213485 4:-0.944862 5:-0.2013 6:-0.950624 7:-0.0190751 8:0.484635 9:-0.997491 10:-0.516149 11:-0.979059 12:-0.163825 
512 0 0 1:-0.28486 2:-0.980743 3:0.355897 4:-0.370618 5:-0.993805 6:-0.499053 7:-0.698454 8:0.548859 9:-1 10:-0.387216 11:-0.797387 12:-0.7582 
4.44995236689523 0 0 1:-0.997216 2:-0.2168 3:-1 4:-0.480599 5:0.117103 6:-1 7:-0.15776 8:-1 9:-0.294798 10:-0.35736 11:-0.999944 12:0.586176 
0 512 0 1:-0.419168 2:-0.939147 3:0.40684 4:-1 5:-0.174146 6:-0.998997 7:-0.270646 8:0.454343 9:-0.882163 10:-0.41367 11:-0.987485 12:-0.042323 
5.691359482875728 15.77283083816081 25.22628479105061 1:-1 2:-1 3:-1 4:-1 5:-1 6:-1 7:-1 8:-1 9:-1 10:-1 11:-1 12:-1 
35.64725090890379 0 0 1:-1 2:-0.125897 3:0.261859 4:-0.983402 5:-0.217816 6:-0.968183 7:0.136989 8:-0.222527 9:-0.945515 10:-0.302877 11:-0.971263 12:0.122458 
178.8165493534593 393.7602297335833 0 1:-0.910659 2:-1 3:-0.0170415 4:-0.829402 5:0.475876 6:-1 7:-0.503379 8:0.141847 9:-0.969232 10:-0.66278 11:-1 12:1 
0 502.8635169236483 0 1:0.115444 2:-0.979798 3:-0.119862 4:-0.975381 5:-0.615489 6:0.141819 7:-0.528922 8:0.0933174 9:-0.945776 10:-0.268026 11:-0.796424 12:-1 
75.32157558107934 256.8803695802195 0 1:-0.784539 2:-0.0101397 3:-0.696274 4:-0.606377 5:-0.735279 6:-0.624735 7:0.304636 8:-0.635618 9:-0.412896 10:-0.892626 11:-0.800122 12:0.093784 
391.4461436370557 512 0 1:-0.740671 2:-0.80547 3:-0.716883 4:-0.946657 5:0.681231 6:-0.954553 7:-0.290357 8:-0.144903 9:-0.904234 10:-0.421932 11:-0.857234 12:0.308776 
512 512 0 1:-0.507064 2:-0.454179 3:0.378904 4:-0.985491 5:-0.54206 6:-0.997021 7:0.879996 8:-0.267443 9:-0.97697 10:-0.363009 11:-0.992821 12:-0.406942 
251.2384360460053 512 0 1:0.07731 2:-0.675338 3:-0.410811 4:-0.874748 5:-0.360691 6:-0.0712762 7:-0.79982 8:0.161351 9:-0.647833 10:-0.491962 11:-0.936016 12:-0.570499 
199.2035793325168 512 61.31316721722562 1:-1 2:-0.33966 3:-1 4:-0.279313 5:0.330423 6:-1 7:0.0313059 8:-1 9:-0.285874 10:-0.567394 11:-1 12:0.282093 
380.2777742098265 0 392.670615033565 1:-0.1201 2:-0.946673 3:-0.0355864 4:-0.88863 5:-0.511761 6:0.405061 7:-0.64963 8:-0.145743 9:-1 10:0.0692898 11:-0.967569 12:-0.793283 
0 512 187.264909681187 1:-0.22483 2:-0.716373 3:-0.130367 4:-0.458131 5:-0.973479 6:-0.194743 7:0.376919 8:-0.354972 9:-0.983299 10:-0.743287 11:-0.7009 12:-0.968707 
512 358.7893853526971 239.3980343936809 1:0.247335 2:-1 3:-0.430351 4:-1 5:-0.74112 6:-0.371695 7:-0.81791 8:0.7039 9:-1 10:-0.158593 11:-0.970107 12:0.0399087 
0 78.48293068119362 0 1:-0.414479 2:-1 3:0.844477 4:-0.970022 5:-0.150142 6:-1 7:-0.715847 8:0.983801 9:-1 10:-0.492707 11:-1 12:-0.164043 
512 512 512 1:-0.262462 2:-0.931021 3:0.232698 4:-1 5:0.245368 6:-0.295598 7:-0.99803 8:-0.178766 9:-0.899556 10:0.0317952 11:-0.994941 12:-0.531368 
247.9017124100125 0 0 1:-1 2:-0.704812 3:0.714403 4:-0.990922 5:-0.0833429 6:-1 7:-0.0736373 8:0.267614 9:-0.978638 10:-0.0896257 11:-0.992437 12:-0.241943 
-512 512 41.13145294769964 1:-0.44387 2:-0.978037 3:0.453187 4:-0.456032 5:-1 6:-0.451039 7:-0.595338 8:0.284875 9:-0.998393 10:-0.521285 11:-0.717964 12:-0.547864 
-512 512 512 1:-0.307642 2:-0.457008 3:-0.500069 4:-0.285849 5:-0.519044 6:-0.275472 7:-0.731491 8:-0.158337 9:-0.587325 10:-0.568799 11:-0.839513 12:-0.763756 
-512 512 0 1:-0.365251 2:-0.965284 3:-0.248785 4:-0.859901 5:0.0956774 6:-1 7:-0.359539 8:0.188261 9:-0.994011 10:-0.649573 11:-0.994487 12:0.770536 
-512 512 512 1:0.243798 2:-0.809898 3:-0.178058 4:-0.98565 5:-0.26798 6:-0.329144 7:-0.361203 8:0.644993 9:-0.984894 10:-0.536626 11:-0.994803 12:-0.724009 
-512 512 221.6297984632509 1:-0.609521 2:0.307957 3:-0.993875 4:-0.525674 5:-0.99762 6:0.3751 7:-0.578137 8:-0.991181 9:-0.282905 10:-0.993127 11:-0.426947 12:-0.998538 
-512 512 0 1:-0.983672 2:-0.270335 3:0.244695 4:-1 5:-0.276177 6:-0.998376 7:0.40421 8:-0.215206 9:-0.949188 10:-0.219394 11:-0.978643 12:0.0180411 
-512 512 0 1:-0.402312 2:-1 3:0.842799 4:-0.722604 5:-1 6:0.337198 7:-1 8:0.0931632 9:-1 10:-0.735977 11:-0.550915 12:-1 
-512 512 512 1:0.245207 2:-0.984325 3:-0.287902 4:-0.976577 5:-0.220699 6:0.225048 7:-0.137145 8:-0.617723 9:-1 10:-0.295597 11:-0.861801 12:-1 
-512 431.4862298443211 39.24191545520064 1:0.121647 2:-0.997363 3:-0.160218 4:-0.981246 5:-0.57344 6:1 7:-0.983951 8:-0.084918 9:-1 10:-0.267815 11:-0.835285 12:-1 
-512 512 20.60380341145474 1:-0.960869 2:1 3:-0.916222 4:-0.954842 5:0.261624 6:-0.963003 7:0.0725138 8:-0.375042 9:-0.203102 10:-0.871636 11:-0.91795 12:-0.514792 
-512 0 512 1:-0.306074 2:-0.998662 3:0.0703969 4:-0.998307 5:0.0101751 6:-0.30473 7:-0.997547 8:-0.380855 9:-0.959667 10:0.619279 11:-1 12:-0.547818 
-512 512 460.7590104970184 1:-0.62986 2:-0.884658 3:-0.590143 4:-0.751902 5:0.182 6:-0.986011 7:-0.258593 8:0.197894 9:-0.982221 10:-0.224631 11:-0.949428 12:0.259465 
-512 512 438.013743767057 1:-0.484042 2:-0.977683 3:-0.0192538 4:-0.923026 5:-0.729953 6:-0.972921 7:-0.0239603 8:0.0207886 9:-0.8212 10:-0.352617 11:-0.799572 12:0.249781 
-512 512 44.55630587406558 1:-0.2574 2:-0.696509 3:-0.629638 4:-0.692505 5:-0.153975 6:-0.576706 7:-0.409259 8:0.0948671 9:-0.699066 10:-0.568744 11:-0.911516 12:-0.197546 
-512 512 512 1:0.00417395 2:-1 3:0.34246 4:-1 5:-0.0868848 6:-0.0152163 7:-1 8:0.293737 9:-1 10:-0.264119 11:-1 12:-0.635315 
-512 229.5975382605086 17.01904754424549 1:0.239387 2:-1 3:-0.461769 4:-1 5:-0.791806 6:-0.347392 7:-0.808993 8:0.73724 9:-1 10:-0.151539 11:-0.968908 12:0.0629736 
-512 0 214.983053245949 1:0.27008 2:-1 3:0.323009 4:-1 5:-0.754044 6:0.528056 7:-1 8:0.183912 9:-1 10:-0.163532 11:-0.947565 12:-0.937519 
-512 512 0 1:0.404563 2:-0.87282 3:0.125289 4:-0.912033 5:-0.646421 6:0.282568 7:-0.900255 8:0.100929 9:-0.851077 10:-0.470362 11:-0.915717 12:-0.959718 
-512 403.0856533238075 0 1:1 2:-0.97301 3:-0.770966 4:-0.931458 5:-0.374659 6:-0.641942 7:-1 8:-0.0420908 9:-0.957987 10:-0.157264 11:-0.981761 12:-0.125077 
-512 182.3802512918504 512 1:-0.999915 2:-0.505969 3:0.885591 4:-0.987922 5:-0.201374 6:-0.99979 7:0.326687 8:-0.698009 9:-0.999773 10:0.207426 11:-0.986894 12:-0.45458 
-512 152.0469462651199 180.0828434315343 1:-0.999835 2:-0.130755 3:-0.99314 4:-0.300686 5:-0.767671 6:-0.999948 7:-0.145394 8:-0.99208 9:1 10:-1 11:-0.910765 12:0.2288 
-512 512 512 1:-0.235584 2:-0.996325 3:-0.195096 4:-0.997116 5:0.208061 6:-0.396933 7:-0.50424 8:-0.091468 9:-0.95856 10:-0.200947 11:-0.994113 12:-0.157025 
-512 512 0 1:-0.398237 2:-0.938124 3:0.441791 4:-0.987304 5:0.0198438 6:-1 7:-0.238021 8:0.520236 9:-1 10:-0.528666 11:-1 12:-0.075012 
-512 512 42.30709963539108 1:-1 2:0.639292 3:-1 4:-0.514923 5:-1 6:-0.784128 7:1 8:-1 9:-0.185192 10:-1 11:-0.804641 12:-0.104685 
-512 512 0 1:0.07284 2:-0.995541 3:-0.420151 4:-0.754661 5:-0.420182 6:-0.08894 7:-0.565216 8:0.0478702 9:-1 10:-0.495733 11:-0.867619 12:-0.307202 
-512 512 0 1:-1 2:-0.664614 3:0.615243 4:-1 5:-0.282682 6:-1 7:0.411407 8:-0.536624 9:-0.907895 10:-0.140256 11:-1 12:0.215571 
-512 512 512 1:-0.182685 2:-0.992213 3:-0.271198 4:-0.788928 5:-0.239627 6:-0.368154 7:-0.674319 8:-0.00657562 9:-1 10:-0.0116356 11:-0.913068 12:-0.367242 
-512 512 93.75123489881608 1:-0.673974 2:-0.895682 3:0.419817 4:-0.878177 5:-0.445112 6:-0.93159 7:-0.178559 8:0.610018 9:-0.959797 10:-0.401304 11:-0.965019 12:0.0808526 
-512 512 512 1:-0.987998 2:-0.151818 3:-0.230166 4:-0.899106 5:0.365705 6:-0.984125 7:-0.313724 8:-0.997808 9:-0.6291 10:0.265166 11:-0.998762 12:-0.160644 
-512 512 0 1:-0.944867 2:-0.225656 3:0.193938 4:-0.935075 5:-0.126156 6:-0.990524 7:0.604049 8:-0.398681 9:-0.985155 10:-0.585338 11:-0.910521 12:-0.0246358 
-512 512 0 1:-1 2:0.692589 3:-1 4:-0.801652 5:-0.108453 6:-0.498222 7:-0.30113 8:-1 9:0.164937 10:-0.968683 11:-0.794424 12:-0.231492 
-512 -0 0 1:-0.0931897 2:-0.415327 3:-0.29079 4:-0.347132 5:-1 6:-0.239291 7:-0.0307015 8:-0.313498 9:-0.860654 10:-0.984754 11:-0.649964 12:-0.97886 
-512 -512 470.7809452886409 1:-0.999835 2:-0.79437 3:0.78643 4:-0.992417 5:-0.535554 6:-1 7:0.260114 8:0.204872 9:-1 10:-0.383309 11:-0.99141 12:0.399514 
-512 -512 0 1:-0.681463 2:-0.0868984 3:-0.999941 4:-0.228936 5:-0.999925 6:0.255398 7:-0.443939 8:-0.812013 9:-0.704402 10:-0.974383 11:-0.323521 12:-0.999993 
-512 -158.8999993296376 0 1:-0.552809 2:-0.275901 3:0.0276799 4:-0.99999 5:0.0604636 6:-0.372241 7:-0.616258 8:0.557464 9:-1 10:-0.508612 11:-0.99755 12:-0.376118 
-512 -512 512 1:-0.280428 2:-0.999992 3:0.235571 4:-0.999995 5:0.363524 6:-0.496119 7:-0.967674 8:-0.0782653 9:-0.980631 10:0.156509 11:-1 12:-0.559479 
-512 -37.855203602461 0 1:-0.417525 2:-1 3:-0.120189 4:-0.663806 5:-0.997459 6:0.409125 7:-0.967012 8:0.879678 9:-0.992774 10:-0.567037 11:-0.593468 12:-0.998644 
-512 -75.03349138866706 208.5463257777473 1:-0.100343 2:-0.992597 3:-0.464441 4:-0.506226 5:-0.839596 6:-0.258474 7:-0.996949 8:0.250636 9:0.0259994 10:-0.825159 11:-0.73997 12:-0.737794 
-512 -0 0 1:0.337791 2:-1 3:0.00350036 4:-1 5:0.130804 6:-0.388475 7:-0.976022 8:0.44912 9:-0.944283 10:-0.55958 11:-1 12:-0.467981 
-512 -0 0 1:-0.408025 2:-0.991436 3:0.0171083 4:-0.835923 5:0.306345 6:-0.978796 7:-0.273383 8:0.301811 9:-1 10:-0.553589 11:-0.994774 12:0.0472707 
-512 -0 0 1:-0.922399 2:0.229069 3:-0.980594 4:-0.125477 5:-0.998801 6:-0.843474 7:0.580654 8:-0.990102 9:0.0337254 10:-0.994663 11:-0.677315 12:-0.646818 
-512 -109.1791377603746 295.0590597944289 1:-1 2:-0.410538 3:-0.894848 4:-1 5:0.876991 6:-1 7:0.134194 8:-0.939655 9:-0.431698 10:-0.247469 11:-0.917689 12:-0.00772907 
-512 -512 0 1:-0.960538 2:0.728742 3:-0.954269 4:-0.517407 5:-0.390213 6:-0.999775 7:0.066697 8:-0.989614 9:0.188916 10:-0.7343 11:-0.970909 12:-0.104103 
-512 -512 35.55900589303381 1:0.0619264 2:-0.937071 3:0.518465 4:-0.969882 5:-0.634615 6:-0.0252307 7:-0.498117 8:-0.253838 9:-1 10:-0.386502 11:-0.772214 12:-1 
-512 -512 375.5977407916662 1:-0.999168 2:0.422907 3:-0.316892 4:-0.9899 5:-0.647409 6:-0.709985 7:0.901336 8:-0.999786 9:-0.43075 10:-0.482516 11:-0.986066 12:-0.022711 
-396.6613328393689 -266.8326773035103 200.3726527829967 1:-0.374954 2:-0.574702 3:-0.399312 4:-0.133262 5:-0.918984 6:-0.66364 7:0.0387653 8:-0.990462 9:-0.774277 10:-0.885985 11:-0.543282 12:-0.523272 
-512 -473.3199928417931 0 1:-0.811082 2:-0.628998 3:-0.229283 4:-0.994636 5:-0.518025 6:-0.985248 7:0.864117 8:-0.643683 9:-0.990111 10:-0.959817 11:-0.687597 12:0.739176 
-512 -512 109.112533836151 1:-0.870488 2:-0.145046 3:-0.796712 4:-0.122071 5:-0.751615 6:-0.577702 7:0.0630989 8:-0.673376 9:-0.457016 10:-0.923812 11:-0.688503 12:-0.303504 
-512 -65.36681223334459 0 1:0.164544 2:-0.980605 3:-0.113975 4:-0.711582 5:-1 6:0.130001 7:-0.555211 8:0.521512 9:-0.652965 10:-0.926149 11:-0.73882 12:-0.979938 
-512 -0 0 1:-0.431197 2:-0.998424 3:-0.164881 4:-0.999826 5:0.922476 6:-1 7:-0.694891 8:-0.173004 9:-1 10:-0.464421 11:-0.99996 12:0.490616 
-512 -512 0 1:-0.0879729 2:-0.32982 3:-0.54159 4:-0.872292 5:-0.28395 6:-0.0264956 7:-0.516656 8:-0.267109 9:-0.590975 10:-0.591562 11:-0.861085 12:-0.785332 
-512 -0 0 1:-0.255373 2:-0.744086 3:-1 4:-0.0118538 5:-0.882018 6:0.0219749 7:-0.691798 8:0.360512 9:0.00192441 10:-0.993948 11:-0.826387 12:-0.997348 
-512 -512 512 1:-0.306074 2:-0.998662 3:0.0703969 4:-0.998307 5:0.0101751 6:-0.30473 7:-0.997547 8:-0.380855 9:-0.959667 10:0.619279 11:-1 12:-0.547818 
-512 -452.9697997451522 142.7803172197494 1:-0.417525 2:-1 3:-0.120189 4:-0.663806 5:-0.997459 6:0.409125 7:-0.967012 8:0.879678 9:-0.992774 10:-0.567037 11:-0.593468 12:-0.998644 
-512 -512 0 1:-0.708928 2:-0.985794 3:0.155682 4:-0.693504 5:-0.343783 6:-0.990053 7:-0.318552 8:0.354621 9:-1 10:-0.595121 11:-0.805121 12:0.230414 
-512 -512 475.1006229093986 1:-0.617843 2:-0.478602 3:-0.0617036 4:-0.877343 5:0.151651 6:-0.747813 7:-0.0988882 8:-0.315853 9:-0.800338 10:-0.303421 11:-0.96612 12:-0.386999 
-512 -512 0 1:-0.0945499 2:-0.97703 3:0.659133 4:-0.98469 5:-0.217301 6:-0.764376 7:-1 8:0.129809 9:-0.970742 10:-0.485875 11:-0.993663 12:0.328103 
-512 -512 512 1:-0.474728 2:-0.290468 3:-0.383083 4:-0.801011 5:-0.292115 6:-0.369105 7:-0.210238 8:-0.527471 9:-0.469402 10:-0.476324 11:-0.899741 12:-0.516836 
-512 -495.557642762213 512 1:0.152297 2:-0.880692 3:-0.354954 4:-1 5:-0.560993 6:-0.907116 7:-0.176732 8:0.585308 9:-1 10:-0.284646 11:-0.820468 12:-0.56231 
-512 -512 512 1:0.036648 2:-0.989499 3:-0.0807532 4:-0.877063 5:-0.263053 6:-0.254343 7:-0.943994 8:0.279396 9:-0.785863 10:-0.380435 11:-0.939696 12:-0.413451 
-512 -0 0 1:0.317463 2:-0.956728 3:-0.429289 4:-0.505792 5:-1 6:-0.0220348 7:-0.740565 8:0.604709 9:-0.387158 10:-0.987126 11:-0.818193 12:-0.917252 
-512 -512 0 1:0.416997 2:-0.927754 3:-0.313432 4:-0.99452 5:-0.264787 6:0.149483 7:-0.998663 8:0.434548 9:-0.998808 10:-0.469124 11:-0.965722 12:-0.543605 
-512 -364.1722849529026 273.303519724846 1:0.0853058 2:-0.9995 3:-0.085846 4:-0.997516 5:0.293513 6:-0.282253 7:-0.913531 8:0.05847 9:-0.878683 10:-0.298069 11:-0.99997 12:-0.522637 
-512 -512 0 1:-0.994847 2:-0.214171 3:0.686415 4:-0.959082 5:-0.431205 6:-0.994169 7:-0.246774 8:-0.196216 9:-0.919408 10:-0.0712232 11:-0.983459 12:0.0725646 
-512 -512 29.36088526140818 1:0.515081 2:-0.999708 3:-0.382831 4:-0.999537 5:-0.468811 6:0.125682 7:-0.999659 8:0.76404 9:-1 10:-0.429771 11:-1 12:-0.48752 
-512 -512 12.53022218291781 1:-0.597754 2:-0.947503 3:-0.98493 4:-0.85214 5:0.762284 6:-0.938139 7:-0.294517 8:-0.136718 9:-1 10:-0.5264 11:-0.970331 12:0.880786 
-512 -62.29726210577397 138.2501919002001 1:-0.421915 2:-1 3:-0.877877 4:1 5:-1 6:-0.279057 7:-1 8:-0.26615 9:-0.194053 10:-1 11:-0.725587 12:-1 
-512 -512 0 1:-0.672667 2:0.409977 3:-0.358978 4:-0.999918 5:-0.395159 6:-0.790894 7:0.394177 8:-0.992971 9:-0.285908 10:-0.30981 11:-0.998157 12:-0.45161 
-497.2404908797149 -0 0 1:0.151059 2:-1 3:-0.51309 4:-0.400244 5:-0.41961 6:-0.447881 7:-1 8:0.228118 9:-0.192764 10:-1 11:-0.715662 12:-1 
-512 -373.1123149597779 0 1:-0.793484 2:-0.400844 3:-0.273551 4:-0.981989 5:-0.231257 6:-0.998241 7:0.920471 8:0.0129714 9:-1 10:-0.508139 11:-0.941399 12:-0.0569279 
-512 -512 0 1:-0.426817 2:-0.803303 3:0.0304119 4:-0.825012 5:-0.22257 6:-0.773507 7:-0.662081 8:0.648872 9:-0.731599 10:-0.539511 11:-0.950097 12:-0.121333 
-512 -512 387.7625834587705 1:0.290387 2:-0.94728 3:-0.25589 4:-0.967576 5:-0.22047 6:0.306945 7:-0.238063 8:-0.0658419 9:-0.99593 10:-0.551514 11:-0.923304 12:-1 
-512 -0 0 1:0.533825 2:-0.730634 3:-0.504397 4:-0.961137 5:-0.231244 6:-0.167798 7:-0.613869 8:0.0674686 9:-0.553395 10:-0.59346 11:-0.982816 12:-0.862782 
-512 -512 -0 1:0.00286709 2:-0.984348 3:-0.257293 4:-0.9955 5:-0.0950808 6:-0.31913 7:-0.855008 8:-0.19869 9:-0.770893 10:0.240611 11:-0.981851 12:-0.585885 
-512 -512 -512 1:-0.569628 2:-0.832469 3:0.38733 4:-0.935244 5:-0.0402749 6:-0.566385 7:-0.662103 8:-0.211636 9:-0.888679 10:0.151273 11:-0.968568 12:-0.462001 
-372.5345497800137 -272.0568496670948 -0 1:-0.448906 2:-0.75664 3:0.850453 4:-1 5:-0.633521 6:-0.41188 7:-1 8:-0.484293 9:-0.999075 10:0.627103 11:-0.810037 12:-0.999087 
-512 -512 -512 1:-0.335396 2:-0.976184 3:-0.1637 4:-0.996542 5:-0.0460227 6:-0.651852 7:-0.495636 8:0.143825 9:-0.901202 10:-0.0724064 11:-0.960207 12:-0.120646 
-512 -512 -512 1:-0.214594 2:-0.566561 3:-0.156284 4:-0.878592 5:-0.634503 6:0.344817 7:-0.661043 8:-0.321658 9:-0.871808 10:-0.502258 11:-0.719982 12:-0.792297 
-324.6387070692787 -270.7813941997075 -512 1:0.29283 2:-1 3:-0.261265 4:-0.993773 5:0.0136611 6:-0.585127 7:-1 8:-0.325211 9:0.103373 10:-0.329034 11:-1 12:-0.789486 
-512 -512 -512 1:0.114798 2:-0.996817 3:-0.0900108 4:-0.995529 5:-0.301057 6:-0.318509 7:-0.543421 8:0.463213 9:-0.975005 10:-0.417521 11:-0.98211 12:-0.342146 
-512 -512 -512 1:-0.999109 2:0.168531 3:-0.00455455 4:-1 5:-0.380786 6:-0.512668 7:0.670721 8:-0.998938 9:-0.133993 10:-0.564902 11:-0.988875 12:-0.540972 
-512 -247.2410653048807 -512 1:-0.0211951 2:-0.985771 3:-0.157709 4:-0.898947 5:-0.248687 6:-0.700113 7:-0.218693 8:0.294285 9:-0.893079 10:0.105959 11:-0.999558 12:-0.870944 
-512 -512 -512 1:-0.359469 2:-0.995749 3:-0.113092 4:-0.9098 5:-0.212945 6:-0.407703 7:-0.843439 8:0.371394 9:-1 10:-0.112137 11:-0.997054 12:0.160214 
-512 -512 -82.11660682195542 1:-0.0407393 2:-1 3:-0.4426 4:-1 5:0.240925 6:-0.289663 7:-0.763974 8:-0.0880517 9:-0.999075 10:0.153196 11:-1 12:-0.460486 
-512 -512 -512 1:-0.98914 2:-0.53984 3:-0.785925 4:0.423778 5:-0.999851 6:-0.583832 7:0.257533 8:-0.983552 9:-0.748016 10:-0.902887 11:-0.446421 12:-0.73151 
-512 -512 -512 1:-0.074803 2:-0.916761 3:-0.23295 4:-0.999879 5:0.263202 6:-0.381155 7:-0.888031 8:-0.1635 9:-0.968608 10:0.145623 11:-0.984743 12:-0.521763 
-512 -512 -512 1:-0.943304 2:-0.272342 3:-0.117346 4:-0.951099 5:-0.135694 6:-0.911606 7:0.490224 8:-0.0776489 9:-0.984792 10:-0.583904 11:-0.957749 12:0.264313 
