svm_type c_svc
kernel_type rbf
gamma 0.0833333
nr_class 4
total_sv 159
rho -1.01961 -1.02095 -1.00531 0.980558 -0.999813 -0.992945
label 2 1 4 3
nr_sv 70 31 43 15
SV
1 1 0 1:0.245271 2:0.004893 3:0.137706 4:0.011994 5:0.062869 6:0.235945 7:0 8:0.080597 9:0 10:0.117381 11:0.103343 12:0 
0.5967488255915583 0 0 1:0.173644 2:0 3:0.187644 4:0.066348 5:0 6:0.21443 7:0 8:0.135255 9:0 10:0.052301 11:0.170378 12:0 
1 1 0 1:0.243502 2:0.022845 3:0.101125 4:0.009135 5:0.068724 6:0.081843 7:0.184405 8:0.148449 9:0.004339 10:0.094285 11:0.006906 12:0.034442 
0 0.4579330978749318 0 1:0.141242 2:0.16373 3:0 4:0.155744 5:0.000557 6:0.112444 7:0 8:0.075715 9:0.192503 10:0 11:0.158064 12:0 
0 1 0 1:0.197229 2:0.00067 3:0.091942 4:0.146347 5:0 6:0.1154 7:0.002962 8:0.191868 9:0.090136 10:0.000144 11:0.155577 12:0.007724 
0 0.8197077601896221 0 1:0.15458 2:0.083045 3:0.005174 4:0.201676 5:0.00607 6:0.128587 7:0.030313 8:0.083057 9:0.210898 10:0.001389 11:0.088177 12:0.007035 
0 0.14771083031266 0 1:0.026973 2:0.218504 3:0.009333 4:0.115464 5:0.000938 6:0.088271 7:0.189523 8:0.000672 9:0.113782 10:0.010436 11:0.136207 12:0.089898 
0.2635011618623807 0.4828110251620233 0 1:0.115267 2:0.010332 3:0.13374 4:0 5:0.095207 6:0.001108 7:0.178695 8:0.18698 9:0 10:0.126118 11:0.008329 12:0.144224 
1 1 0 1:0.207686 2:1e-006 3:0.152944 4:0.001947 5:0.038098 6:0.225705 7:8e-005 8:0.05118 9:1.5e-005 10:0.133369 11:0.188594 12:0.000381 
1 1 0 1:0.21647 2:0 3:0.119486 4:0.005682 5:0.135154 6:0.090072 7:0.007106 8:0.187882 9:0.010183 10:0.137755 11:0.006137 12:0.084073 
0 1 0 1:0.163333 2:0 3:0.147851 4:0.056639 5:0 6:0.164535 7:0.081045 8:0.13813 9:0.002191 10:0.066925 11:0.179352 12:0 
1 0 0 1:0.198654 2:0.008974 3:0.130877 4:0.009491 5:0.088097 6:0.126104 7:0.04235 8:0.147492 9:0.036674 10:0.131872 11:0.00689 12:0.072525 
1 0 0 1:0 2:0.139201 3:0 4:0.06744 5:0.205922 6:0 7:0.164319 8:0 9:0.127758 10:0.120678 11:0 12:0.174682 
0.3394903159485778 1 0 1:0.005032 2:0.118369 3:0.00254 4:0.043919 5:0.214087 6:0 7:0.169736 8:0.002033 9:0.181589 10:0.031844 11:0.00711 12:0.22374 
0.46853894765986 1 0 1:0.017154 2:0.242885 3:0 4:0.086822 5:0.151663 6:0 7:0.13675 8:0 9:0.169717 10:0.051181 11:0.002038 12:0.141791 
0.7364988381376193 1 0 1:0.002055 2:0.220824 3:0 4:0.121835 5:0.032449 6:0.048521 7:0.176472 8:0 9:0.12865 10:0.000957 11:0.149348 12:0.118889 
0.5003030996305342 0 1 1:0.193007 2:0 3:0.111966 4:0 5:0.088791 6:0.179114 7:0.002458 8:0.130711 9:0 10:0.221908 11:0.057033 12:0.015012 
0.6422983936516448 0.7312875956062565 0 1:0.103598 2:4.9e-005 3:0.269401 4:7e-006 5:0.109632 6:0 7:0.054822 8:0.178054 9:1.7e-005 10:0.136966 11:1e-006 12:0.147453 
0.3887742623097747 0.2400265477946976 0 1:0.076693 2:0.129495 3:0.083678 4:0.037019 5:0.148886 6:0.042061 7:0.026307 8:0.03598 9:0.059803 10:0.135062 11:0.027263 12:0.197752 
1 1 1 1:0.156337 2:0.001769 3:0.126708 4:0.002667 5:0.179549 6:0.121788 7:0.005306 8:0.08587 9:0.013252 10:0.199582 11:0.007479 12:0.099693 
0.7427365171461019 1 0 1:0.005006 2:0.02169 3:0.18948 4:0.001251 5:0.321863 6:0.000153 7:0.061863 8:0.082274 9:0 10:0.117093 11:0.000784 12:0.198543 
0.2763983556669369 1 0.188061118692465 1:0.143747 2:0.054565 3:0.003537 4:0.216509 5:3e-006 6:0.166341 7:4.8e-005 8:0.022966 9:0.22178 10:0.0004 11:0.170101 12:3e-006 
0 0 1 1:0.004925 2:0.105923 3:0.121256 4:0.011343 5:0.158953 6:0.020651 7:0.19204 8:0.003488 9:0.104669 10:0.19341 11:0.001553 12:0.08179 
0 0.6834237482882337 0 1:0.147133 2:0.000255 3:0.160633 4:0.077204 5:0 6:0.135663 7:0 8:0.231789 9:0 10:0.04474 11:0.200716 12:0.001866 
1 0 1 1:0.005442 2:0.127805 3:0.125655 4:0.010394 5:0.156838 6:0.009904 7:0.1644 8:0.001418 9:0.068109 10:0.209605 11:0.001109 12:0.11932 
0 1 1 1:0.190448 2:0 3:0.112933 4:0.013734 5:0.180607 6:0.065913 7:0.046342 8:0.159853 9:0.041522 10:0.138398 11:0 12:0.05025 
0 0.100233398342188 1 1:0.15826 2:0.007901 3:0.090473 4:0.003309 5:0.16848 6:0.061545 7:0.063679 8:0.208376 9:0.000628 10:0.166519 11:0.002623 12:0.068207 
1 0.9237421849840793 0 1:1.1e-005 2:0.238567 3:0 4:0.108074 5:3.5e-005 6:0.065394 7:0.239433 8:0 9:0.133853 10:1e-006 11:0.139313 12:0.075319 
0.3577016063483552 0 0 1:0.069245 2:0.007746 3:0.187455 4:0 5:0.125202 6:0.003873 7:0.063125 8:0.23359 9:0 10:0.116704 11:0.000434 12:0.192625 
1 1 0.05249764972173784 1:0.243502 2:0.022845 3:0.101125 4:0.009135 5:0.068724 6:0.081843 7:0.184405 8:0.148449 9:0.004339 10:0.094285 11:0.006906 12:0.034442 
0.5644462101310357 0.7305338260569386 0.07592422528994117 1:0.165466 2:0.025687 3:0.003421 4:0.209446 5:0.003442 6:0.177175 7:6.1e-005 8:0.054916 9:0.234236 10:0.002361 11:0.123431 12:0.000358 
1 0 0 1:0.096517 2:0 3:0.199449 4:0 5:0.120376 6:0.004102 7:0.073432 8:0.218573 9:0 10:0.107981 11:0 12:0.179571 
0 0.8630849300412407 0 1:0.185548 2:0.058274 3:0.105814 4:0.036936 5:0.087282 6:0.136667 7:0.045397 8:0.148354 9:0.021926 10:0.075658 11:0.041414 12:0.056729 
0 1 0 1:0 2:0.152033 3:0.054191 4:0.094449 5:0.158609 6:0 7:0.195624 8:0 9:0.090563 10:0.072465 11:0.038614 12:0.14345 
1 0 1 1:0.015492 2:0.031306 3:0.203748 4:0.001305 5:0.129957 6:0 7:0.15004 8:0.060209 9:0.000615 10:0.219667 11:0.003426 12:0.184235 
0.3344525874442537 0.2411491195703925 0.2787358468252157 1:0.131777 2:0.00072 3:0.186395 4:0.000375 5:0.110355 6:0.12744 7:0.034823 8:0.088126 9:0.003643 10:0.163138 11:0.129229 12:0.023979 
1 1 0 1:0.200557 2:0.004515 3:0.116407 4:0.003114 5:0.141163 6:0.074385 7:0.012235 8:0.221826 9:0 10:0.12208 11:0.006224 12:0.097496 
0.02667858635812459 1 1 1:0.157938 2:0.010198 3:0.097975 4:0.008639 5:0.211186 6:0.064046 7:0.016515 8:0.144999 9:0 10:0.17093 11:0.008309 12:0.109264 
0.6334611449623782 0 0.3594122937399839 1:0.012653 2:0.170605 3:0.092149 4:0.001967 5:0.182748 6:0.036889 7:0.146663 8:0.001146 9:0.07525 10:0.173343 11:0.00044 12:0.106146 
0 1 0 1:0.089727 2:0.011754 3:0.072516 4:0.173928 5:0.02022 6:0.080394 7:0.070162 8:0.130085 9:0.089947 10:0.014358 11:0.195804 12:0.051105 
0 1 0.0423133696784653 1:0.140379 2:0.003449 3:0.099257 4:0.024047 5:0.148303 6:0.002063 7:0.116232 8:0.183224 9:0.001508 10:0.141798 11:1e-006 12:0.13974 
0 0.9748655280172218 0 1:0.062975 2:0.060118 3:0.14824 4:0.01892 5:0.096432 6:0.036617 7:0.161584 8:0.091674 9:0.020715 10:0.132476 11:0.09583 12:0.074419 
0 1 0 1:0.13975 2:0.004602 3:0.074708 4:0.224676 5:0 6:0.066124 7:0.039014 8:0.155451 9:0.116544 10:0.0008 11:0.170938 12:0.007392 
0.6322431641367324 0 0.1556923223284071 1:0.003219 2:0.220465 3:0.02081 4:0.092202 5:0.070684 6:0 7:0.145422 8:0.000222 9:0.219443 10:0.067891 11:0.074903 12:0.084739 
0 1 0 1:0.090648 2:0.046778 3:0.044268 4:0.0288 5:0.158319 6:0.055964 7:0.176469 8:0.084735 9:0.027308 10:0.070243 11:0.021933 12:0.194536 
0.3039467766210869 0.56958539111852 0.2079110652691915 1:0 2:0 3:0.004901 4:0 5:0 6:0 7:0 8:0 9:0 10:0 11:0.995099 12:0 
1 1 0 1:0.197544 2:0.058782 3:0.066931 4:0.028914 5:0.108138 6:0.105601 7:0.018356 8:0.143162 9:0.057954 10:0.116128 11:0.035314 12:0.063174 
0 0.6971153016210057 0 1:0.169876 2:0.027737 3:0.103629 4:0.002936 5:0.149889 6:0.137838 7:0.083989 8:0.138564 9:0.015699 10:0.105155 11:0.010894 12:0.053794 
1 0.2569439950009091 0 1:0.101833 2:0.004465 3:0.173851 4:0.016777 5:0.062062 6:0.010858 7:0.146157 8:0.166081 9:0 10:0.105524 11:0.017067 12:0.195326 
0 1 0 1:0.183353 2:0.044997 3:0.119106 4:0.022826 5:0.118945 6:0.092641 7:0.05291 8:0.127872 9:0.042577 10:0.110692 11:0.038431 12:0.045651 
0 0 1 1:0.18788 2:0.003127 3:0.153998 4:0.001359 5:0.073853 6:0.193428 7:1.1e-005 8:0.11399 9:0.001328 10:0.186451 11:0.084482 12:9.5e-005 
0 1 0 1:0.127148 2:0.01811 3:0.163457 4:0.011431 5:0.128536 6:0.006597 7:0.137946 8:0.173398 9:0.000442 10:0.0961 11:0.010419 12:0.126415 
0.1426417669804042 0 0 1:0.180948 2:0.00207 3:0.135471 4:0 5:0.035721 6:0.229202 7:0 8:0.167275 9:0 10:0.205383 11:0.031636 12:0.012294 
1 0.5910782431889947 0.5179324438460866 1:0.134069 2:0.002505 3:0.18264 4:0.130482 5:0.000997 6:0.06693 7:0.042406 8:0.180899 9:0 10:0.121708 11:0.10081 12:0.036556 
0.8415332800946638 0 0.02646595804390133 1:0.000522 2:0.101881 3:0 4:0.107681 5:0.179777 6:0 7:0.118443 8:0 9:0.124227 10:0.127638 11:2.8e-005 12:0.239802 
0 1 0 1:0.10889 2:0.007916 3:0.189502 4:0 5:0.132906 6:0.000134 7:0.102568 8:0.16986 9:0.020758 10:0.116454 11:0.006227 12:0.144784 
1 0.7016213214138909 0 1:0.016749 2:0 3:0.132405 4:0.035368 5:0.237515 6:0 7:0.069839 8:0.133362 9:0.00542 10:0.066977 11:0 12:0.302365 
0.4323431614664313 0.3750306161148398 0.4500519602268571 1:0.209115 2:0.002628 3:0.118555 4:0.005104 5:0.06188 6:0.152555 7:0.066247 8:0.127694 9:0.009552 10:0.145381 11:0.101289 12:0 
0 0.1379686229207204 0 1:0.040393 2:0.128764 3:0.040912 4:0.081605 5:0.042602 6:0.050138 7:0.183469 8:0.042558 9:0.103423 10:0.021326 11:0.099449 12:0.165361 
0.06330801195386969 1 0 1:0.048617 2:0.025305 3:0.038136 4:0.011059 5:0.270563 6:0.006072 7:0.099796 8:0.099871 9:0.01687 10:0.114813 11:0.071033 12:0.197864 
0.06032865555442311 0 0 1:0.064867 2:0.040043 3:0.075127 4:0.079605 5:0.019783 6:0.153377 7:0.138816 8:0.077336 9:0.032217 10:0.049099 11:0.177328 12:0.092402 
0.3665388550376219 0 0 1:0.004884 2:0.189146 3:0.067072 4:0.006217 5:0.079811 6:0.02836 7:0.186204 8:0.008223 9:0.105202 10:0.121586 11:0.046325 12:0.156969 
1 1 0.270534982854088 1:0.092412 2:0.071002 3:0.185739 4:0.003008 5:0.073697 6:0.000398 7:0.264381 8:0.085559 9:0.004057 10:0.126516 11:0.003572 12:0.08966 
0 1 0 1:0.201966 2:0.042233 3:0.079364 4:0.025967 5:0.102885 6:0.124084 7:0.028151 8:0.13564 9:0.062037 10:0.100904 11:0.031835 12:0.064933 
0 1 0.7722446944192423 1:0 2:0.085899 3:0 4:0.149411 5:0.214107 6:0 7:0.145031 8:0 9:0.125799 10:0.085922 11:0 12:0.19383 
0.5994677222588293 0 1 1:0.164957 2:0.006937 3:0.129907 4:0.023089 5:0.078573 6:0.187726 7:0.049272 8:0.099773 9:0 10:0.212377 11:0.016136 12:0.031252 
0.6856197530468013 1 0 1:0.145323 2:0.036895 3:0.11714 4:0.112339 5:0.004268 6:0.107588 7:0.193634 8:0.075336 9:0.002942 10:0.050987 11:0.148817 12:0.004731 
1 0.5187284017202302 0.6022220690644171 1:0.233841 2:0 3:0.076732 4:0 5:0.041662 6:0.083946 7:0.025607 8:0.199007 9:0 10:0.167116 11:0.014873 12:0.157216 
0 0.7554185146604031 0 1:0.109769 2:0 3:0.248452 4:0.006215 5:0.136769 6:0 7:0.03996 8:0.231698 9:0 10:0.100756 11:0 12:0.126382 
1 1 1 1:0.138268 2:0.008973 3:0.166045 4:0 5:0.200419 6:0.094113 7:0.000277 8:0.095916 9:0.017694 10:0.20493 11:0.002517 12:0.070849 
-1 1 0.5352867412727548 1:0.104259 2:0.002857 3:0.195745 4:0.112774 5:0 6:0.073345 7:0.056907 8:0.150067 9:0.000283 10:0.09508 11:0.140327 12:0.068355 
-1 1 1 1:0.129798 2:0.070634 3:0.067341 4:0.148056 5:0.077401 6:0.096802 7:0.03776 8:0.098302 9:0.072696 10:0.085643 11:0.07985 12:0.035716 
-1 1 0 1:0.118998 2:0.004516 3:0.101189 4:0.029045 5:0.176329 6:0 7:0.090067 8:0.138783 9:0.001055 10:0.0696 11:0.002743 12:0.267674 
-1 1 0 1:0.233178 2:0.024729 3:0.110716 4:0.002975 5:0.117805 6:0.089631 7:0.089833 8:0.192127 9:0.002661 10:0.092033 11:0.002586 12:0.041725 
-1 1 0.1030876334285167 1:0.073204 2:0.170143 3:0.000825 4:0.098336 5:0.000383 6:0.183723 7:0.059326 8:0.00103 9:0.126322 10:0.001365 11:0.285122 12:0.000221 
-1 1 0.3774896395770277 1:0.003061 2:0.094917 3:0.167661 4:0 5:0.116486 6:0.000217 7:0.197472 8:0.09166 9:0.008951 10:0.15504 11:0.010626 12:0.15391 
-1 1 0 1:0.11205 2:0 3:0.248226 4:0.057509 5:0 6:0.178659 7:0 8:0.127676 9:0 10:0.052439 11:0.223442 12:0 
-1 1 1 1:0.233442 2:0.002039 3:0.09592 4:0.004856 5:0.125414 6:0.163675 7:0.121342 8:0.044648 9:0 10:0.139905 11:0.068761 12:0 
-1 1 1 1:0.210278 2:0.000343 3:0.113119 4:0.003888 5:0.068647 6:0.267214 7:0.002257 8:0.106877 9:0 10:0.145423 11:0.081954 12:0 
-1 1 0.5902046623905337 1:0.007336 2:0.260166 3:0.011285 4:0.009362 5:0.203035 6:0.004943 7:0.150826 8:0.072992 9:0.14038 10:0.025495 11:0.040824 12:0.073355 
-1 1 1 1:0.130092 2:0.000174 3:0.144183 4:0.000351 5:0.162569 6:0.092893 7:0.000345 8:0.072313 9:0.007105 10:0.321613 11:0 12:0.068362 
-1 1 1 1:0.069391 2:0.015004 3:0.055208 4:0.051435 5:0.190221 6:0.001869 7:0.104263 8:0.139908 9:0.003132 10:0.154 11:0.025162 12:0.190409 
-1 1 0 1:0.096728 2:0.002903 3:0.132107 4:0.015958 5:0.043459 6:0.003618 7:0.137259 8:0.119223 9:0.031497 10:0.12858 11:0.099723 12:0.188945 
-1 1 0.06906349664792497 1:0.139217 2:0.039479 3:0.049888 4:0.063749 5:0.136152 6:0.056555 7:0.083075 8:0.127875 9:0.053012 10:0.085654 11:0.044025 12:0.121317 
-1 1 1 1:0.188255 2:0 3:0.18083 4:0 5:0.146949 6:0.131574 7:0 8:0.151102 9:0 10:0.146157 11:0 12:0.055134 
-1 1 0 1:0.232351 2:0 3:0.0725 4:0 5:0.033505 6:0.087193 7:0.026861 8:0.202901 9:0 10:0.168517 11:0.01547 12:0.160703 
-1 1 1 1:0.238105 2:0 3:0.17821 4:0 5:0.039582 6:0.204159 7:0 8:0.138275 9:0 10:0.166135 11:0.026089 12:0.009446 
-1 1 0 1:0.263317 2:0.016544 3:0.151577 4:0.018237 5:0.056902 6:0.17136 7:0.014027 8:0.128583 9:0.026234 10:0.105194 11:0.041935 12:0.00609 
-1 1 1 1:0.374945 2:0.003511 3:0.030851 4:0.01421 5:0.100637 6:0.047839 7:0 8:0.111879 9:0.007401 10:0.16738 11:0.009075 12:0.132273 
-1 1 1 1:1.6e-005 2:0.064265 3:0.25399 4:0.002504 5:0.128524 6:2.8e-005 7:0.18657 8:0.035271 9:4e-005 10:0.239813 11:0.006521 12:0.082458 
-1 1 0.3020732843295572 1:3.1e-005 2:0.113074 3:0.000924 4:0.14498 5:0.037389 6:7e-006 7:0.120182 8:0.000925 9:0.352316 10:0 11:0.044399 12:0.185773 
-1 1 1 1:0.143307 2:0.000478 3:0.108421 4:0.000598 5:0.194415 6:0.080574 7:0.069718 8:0.106112 9:0.0073 10:0.158704 11:0.002929 12:0.127443 
-1 1 0 1:0.112814 2:0.008049 3:0.19421 4:0.002632 5:0.164125 6:0 7:0.107156 8:0.177556 9:0 10:0.093614 11:0 12:0.139842 
-1 1 0 1:0 2:0.213244 3:0 4:0.100565 5:0 6:0.028842 7:0.281257 8:0 9:0.143535 10:0 11:0.097201 12:0.135356 
-1 1 0 1:0.201128 2:0.00058 3:0.078106 4:0.050863 5:0.093311 6:0.121724 7:0.061143 8:0.122386 9:0 10:0.100155 11:0.065866 12:0.104739 
-1 1 1 1:0 2:0.043628 3:0.217574 4:0 5:0.115439 6:0 7:0.198484 8:0.05412 9:0.016225 10:0.170758 11:0 12:0.183773 
-1 1 1 1:0.153224 2:0.001013 3:0.09817 4:0.043759 5:0.122368 6:0.084419 7:0.0458 8:0.116027 9:0 10:0.196304 11:0.043253 12:0.095662 
-1 1 0.02279454235368505 1:0.061121 2:0.01357 3:0.19125 4:0.025256 5:0.089299 6:0.00914 7:0.115518 8:0.188042 9:0.007082 10:0.11891 11:0.017405 12:0.163406 
-1 1 1 1:0.00225 2:0.110334 3:0.103697 4:0.020917 5:0.219785 6:0.002121 7:0.09651 8:0.000256 9:0.065337 10:0.251281 11:0.000616 12:0.126896 
-1 1 0 1:0.010336 2:0.100729 3:0.160824 4:0.01346 5:0.140629 6:0.001266 7:0.225575 8:0.070231 9:0.002615 10:0.082358 11:0.04452 12:0.147458 
-1 1 0 1:0 2:0.220177 3:0 4:0.041121 5:0.143478 6:0.067041 7:0.098281 8:0 9:0.205213 10:0.00622 11:0.102284 12:0.116185 
-1 -0 0 1:0.170002 2:0.076056 3:0.095531 4:0.135351 5:0 6:0.101636 7:0.136311 8:0.08018 9:0.024547 10:0.003028 11:0.17416 12:0.003196 
-1 -1 0.6268573335610932 1:3.1e-005 2:0.026749 3:0.240633 4:0.001572 5:0.074744 6:0 7:0.177208 8:0.140723 9:0 10:0.122484 11:0.004274 12:0.211582 
-1 -0 0 1:0.059717 2:0.118779 3:8e-006 4:0.159855 5:1.2e-005 6:0.16773 7:0.078198 8:0.021956 9:0.052072 10:0.005088 11:0.336582 12:1e-006 
-1 -1 0 1:0.083836 2:0.094193 3:0.138429 4:2e-006 5:0.170662 6:0.083873 7:0.053965 8:0.181904 9:0 10:0.097597 11:0.001219 12:0.09432 
-1 -1 1 1:0.1349 2:1e-006 3:0.166432 4:1e-006 5:0.219434 6:0.067322 7:0.004546 8:0.107654 9:0.003412 10:0.2297 11:0 12:0.066599 
-1 -1 0 1:0.109198 2:0 3:0.118511 4:0.069699 5:0.000409 6:0.188269 7:0.004639 8:0.219537 9:0.001273 10:0.085993 11:0.20227 12:0.000205 
-1 -0.5810147415581682 0 1:0.168661 2:0.000963 3:0.07214 4:0.102368 5:0.025814 6:0.099073 7:0.000429 8:0.146068 9:0.180738 10:0.034726 11:0.129378 12:0.039641 
-1 -0.2272917606229214 0 1:0.250799 2:0 3:0.135172 4:0 5:0.181982 6:0.081704 7:0.003372 8:0.16925 9:0.009815 10:0.087474 11:0 12:0.080432 
-1 -0 0 1:0.110979 2:0.001114 3:0.137005 4:0.034016 5:0.210232 6:0.002833 7:0.102183 8:0.152045 9:0 10:0.088664 11:0.0026 12:0.158329 
-1 -0.3123830327480233 0 1:0.014548 2:0.159881 3:0.002614 4:0.181304 5:0.000193 6:0.020913 7:0.222285 8:0.001156 9:0.182099 10:0.00106 11:0.160552 12:0.053395 
-1 -1 1 1:0 2:0.076679 3:0.014164 4:0 5:0.302067 6:0 7:0.1595 8:0.007048 9:0.100111 10:0.149464 11:0.040954 12:0.150014 
-1 -1 0 1:0.007398 2:0.22488 3:0.00616 4:0.10005 5:0.098134 6:3e-005 7:0.150008 8:0.001213 9:0.209437 10:0.052772 11:0.014474 12:0.135444 
-1 -1 1 1:0.199082 2:0.008186 3:0.204538 4:0.006244 5:0.058802 6:0.130236 7:0.070579 8:0.087148 9:0 10:0.12185 11:0.113335 12:0 
-1 -1 0.1866145919118629 1:0.000156 2:0.185096 3:0.092015 4:0.002094 5:0.056743 6:0.038748 7:0.267382 8:2.5e-005 9:0.100278 10:0.10278 11:0.006933 12:0.147749 
-1 -1 0 1:0.117179 2:0.055324 3:0.080913 4:0.17969 5:0.013038 6:0.04494 7:0.14608 8:0.001114 9:0.039763 10:0.022645 11:0.22724 12:0.072073 
-1 -0.8922918543478973 0 1:0.035417 2:0.048261 3:0.103816 4:0.001112 5:0.077565 6:0.001971 7:0.262148 8:0.041616 9:0.001742 10:0.007981 11:0.155436 12:0.262933 
-1 -1 0 1:0.02428 2:0.111215 3:0.027383 4:0.18201 5:0.039973 6:0.056422 7:0.149502 8:0.038148 9:0.095651 10:0.015132 11:0.154985 12:0.105298 
-1 -0 1 1:0.23735 2:0.006215 3:0.099424 4:0 5:0.168482 6:0.00815 7:0.024424 8:0.128145 9:0 10:0.126444 11:0.159876 12:0.041491 
-1 -0 0 1:0.21832 2:0.002523 3:0.119348 4:0.059794 5:0 6:0.150976 7:0.06255 8:0.177705 9:0.061133 10:0.014668 11:0.12995 12:0.003033 
-1 -0.5060222686719952 0.04189593716473024 1:0.106635 2:0.000205 3:0.112491 4:3.6e-005 5:0.309387 6:0 7:0.042907 8:0.096589 9:0 10:0.106374 11:2e-005 12:0.225355 
-1 -1 0 1:0.17098 2:0.087179 3:0.061748 4:0.026476 5:0.115235 6:0.130067 7:0.067972 8:0.085598 9:0.072053 10:0.081122 11:0.069117 12:0.032454 
-1 -0 0 1:0.139597 2:0.03329 3:0 4:0.20486 5:0.018987 6:0.136543 7:0.043342 8:0.158901 9:0.176497 10:0.001202 11:0.086381 12:0.000401 
-1 -1 1 1:0.130092 2:0.000174 3:0.144183 4:0.000351 5:0.162569 6:0.092893 7:0.000345 8:0.072313 9:0.007105 10:0.321613 11:0 12:0.068362 
-1 -1 0.5614044430848062 1:0.109198 2:0 3:0.118511 4:0.069699 5:0.000409 6:0.188269 7:0.004639 8:0.219537 9:0.001273 10:0.085993 11:0.20227 12:0.000205 
-1 -1 0 1:0.054568 2:0.001848 3:0.155671 4:0.063542 5:0.105606 6:0.001329 7:0.095831 8:0.158213 9:0 10:0.080415 11:0.096962 12:0.186017 
-1 -1 1 1:0.071644 2:0.067825 3:0.126389 4:0.025429 5:0.185337 6:0.033694 7:0.126722 8:0.079905 9:0.035172 10:0.138351 11:0.016857 12:0.092675 
-1 -1 0 1:0.169747 2:0.002988 3:0.223486 4:0.003174 5:0.125961 6:0.031481 7:0 8:0.131956 9:0.005154 10:0.102113 11:0.003153 12:0.200786 
-1 -1 1 1:0.098474 2:0.092298 3:0.083099 4:0.041254 5:0.113921 6:0.084292 7:0.111063 8:0.055189 9:0.093469 10:0.10401 11:0.049884 12:0.073046 
-1 -1 0.5536422727667388 1:0.216024 2:0.01552 3:0.086888 4:0 5:0.07065 6:0.01241 7:0.115775 8:0.185156 9:0 10:0.14208 11:0.089326 12:0.066171 
-1 -1 1 1:0.194343 2:0.001366 3:0.123823 4:0.025487 5:0.118598 6:0.099625 7:0.007876 8:0.149427 9:0.037722 10:0.123055 11:0.030004 12:0.088676 
-1 -0 0 1:0.246988 2:0.005629 3:0.076875 4:0.102458 5:0 6:0.130663 7:0.036484 8:0.187422 9:0.107957 10:0.002557 11:0.090458 12:0.01251 
-1 -1 0 1:0.265648 2:0.009398 3:0.092481 4:0.001136 5:0.118319 6:0.153579 7:0.000188 8:0.167548 9:0.00021 10:0.10544 11:0.017055 12:0.068999 
-1 -1 1 1:0.203465 2:6.5e-005 3:0.123137 4:0.000515 5:0.208167 6:0.095896 7:0.01216 8:0.123624 9:0.021371 10:0.139414 11:1.5e-005 12:0.072169 
-1 -1 1 1:0.000966 2:0.102223 3:0.227161 4:0.008483 5:0.091537 6:0.000779 7:0.105925 8:0.093878 9:0.014197 10:0.184469 11:0.00823 12:0.162153 
-1 -1 1 1:0.284036 2:3.8e-005 3:0.083133 4:9.6e-005 5:0.085485 6:0.150399 7:4.8e-005 8:0.206031 9:0 10:0.113256 11:0 12:0.077478 
-1 -0.2671248585202213 0.03251275099135009 1:0.07541 2:0.006829 3:0.00203 4:0.030654 5:0.283607 6:0.008265 7:0.099211 8:0.100827 9:0 10:0.094064 11:0.014762 12:0.284342 
-1 -0.2138714835307732 0.4143339599318536 1:0.108375 2:0 3:0.01645 4:0.414635 5:0 6:0.096323 7:0 8:0.08571 9:0.141974 10:0 11:0.136534 12:0 
-1 -1 1 1:0.061366 2:0.183414 3:0.086346 4:1.7e-005 5:0.097338 6:0.027938 7:0.196061 8:0.000821 9:0.125793 10:0.137082 11:0.000917 12:0.082907 
-1 -0 0 1:0.215792 2:0 3:0.065587 4:0.12434 5:0.093403 6:0.073767 7:0 8:0.143438 9:0.142201 10:0 11:0.141472 12:0 
-1 -1 0 1:0.038716 2:0.07794 3:0.097853 4:0.003734 5:0.123715 6:0.000235 7:0.270073 8:0.11831 9:0 10:0.097691 11:0.029157 12:0.142576 
-1 -1 0 1:0.107456 2:0.025587 3:0.138797 4:0.036278 5:0.125113 6:0.030261 7:0.047521 8:0.19258 9:0.047281 10:0.09146 11:0.024829 12:0.132839 
-1 -1 0.582738710587565 1:0.241912 2:0.006858 3:0.100232 4:0.006722 5:0.125451 6:0.174617 7:0.10715 8:0.109105 9:0.000717 10:0.089076 11:0.03816 12:0 
-1 -1 0 1:0.28755 2:0.03504 3:0.066758 4:0.008057 5:0.123717 6:0.111188 7:0.054301 8:0.124675 9:0.078673 10:0.080745 11:0.00855 12:0.020745 
-1 -1 -1 1:0.18801 2:0.002036 3:0.100043 4:0.000933 5:0.14563 6:0.090969 7:0.02039 8:0.093589 9:0.040359 10:0.246404 11:0.00903 12:0.062607 
-1 -1 -1 1:0.080683 2:0.021793 3:0.186874 4:0.013425 5:0.15445 6:0.057934 7:0.047518 8:0.092077 9:0.01961 10:0.22866 11:0.015639 12:0.081336 
-1 -1 -1 1:0.103315 2:0.031657 3:0.249257 4:0 5:0.058978 6:0.078577 7:0 8:0.060232 9:0.000163 10:0.323167 11:0.094516 12:0.000138 
-1 -1 -1 1:0.124595 2:0.003098 3:0.11265 4:0.000717 5:0.153525 6:0.046515 7:0.070928 8:0.133593 9:0.017404 10:0.184234 11:0.019799 12:0.132943 
-1 -1 -1 1:0.147242 2:0.056383 3:0.113649 4:0.02517 5:0.05882 6:0.179677 7:0.047667 8:0.079227 9:0.022582 10:0.098859 11:0.139323 12:0.031401 
-1 -1 -1 1:0.24237 2:0 3:0.099508 4:0.001291 5:0.16313 6:0.05543 7:0 8:0.078812 9:0.194368 10:0.133264 11:0 12:0.031826 
-1 -1 -1 1:0.208994 2:0.000414 3:0.122576 4:0.000927 5:0.112482 6:0.091052 7:0.064208 8:0.170896 9:0.004403 10:0.115689 11:0.008901 12:0.099456 
-1 -1 -1 1:0.099089 2:0.000309 3:0.075991 4:0.003831 5:0.237356 6:0.091995 7:0.013102 8:0.046791 9:0.005471 10:0.39723 11:0.000618 12:0.028218 
-1 -1 -1 1:0.000167 2:0.152006 3:0.134087 4:0 5:0.099651 6:0.065111 7:0.234951 8:0.000124 9:0.152554 10:0.086417 11:0.005535 12:0.069397 
-1 -1 -1 1:0.183499 2:0.001851 3:0.113457 4:0.02095 5:0.12091 6:0.040067 7:0.109874 8:0.151166 9:0.018835 10:0.21966 11:0.00022 12:0.019511 
-1 -1 -1 1:0.120082 2:0.000553 3:0.119467 4:0.0187 5:0.126662 6:0.079135 7:0.022017 8:0.160172 9:0 10:0.176343 11:0.001466 12:0.175404 
-1 -1 -1 1:0.179835 2:0 3:0.075082 4:0 5:0.199704 6:0.094906 7:0.033192 8:0.106511 9:0.000163 10:0.229042 11:0 12:0.081565 
-1 -1 -1 1:0.002036 2:0.059859 3:0.028836 4:0.295174 5:2.4e-005 6:0.055603 7:0.176845 8:0.001921 9:0.044389 10:0.019288 11:0.275433 12:0.040591 
-1 -1 -1 1:0.173449 2:0.010828 3:0.103322 4:2.5e-005 5:0.203289 6:0.082682 7:0.015746 8:0.097699 9:0.00553 10:0.227538 11:0.007591 12:0.072301 
-1 -1 -1 1:0.010629 2:0.094656 3:0.118894 4:0.010138 5:0.139094 6:0.01181 7:0.209568 8:0.107726 9:0.002679 10:0.082643 11:0.021022 12:0.191142 
