svm_type c_svc
kernel_type rbf
gamma 0.125
nr_class 4
total_sv 47
rho -1.11654 -2.66936 -0.854907 -0.845642 -0.615672 -0.0850661
label 2 4 3 1
nr_sv 26 15 5 1
SV
2.464218543197925 0 0 1:-0.365251 2:-0.965284 3:-0.248785 4:-0.859901 5:0.0956774 6:-1 7:-0.359539 8:0.188261 9:-0.994011 10:-0.649573 11:-0.994487 12:0.770536 
0 60.48854852177083 0 1:-0.280428 2:-0.999992 3:0.235571 4:-0.999995 5:0.363524 6:-0.496119 7:-0.967674 8:-0.0782653 9:-0.980631 10:0.156509 11:-1 12:-0.559479 
12.68978289178074 0 0 1:-0.100343 2:-0.992597 3:-0.464441 4:-0.506226 5:-0.839596 6:-0.258474 7:-0.996949 8:0.250636 9:0.0259994 10:-0.825159 11:-0.73997 12:-0.737794 
0 10.49993089523876 0 1:0.0295217 2:-1 3:-0.168778 4:-1 5:-0.448268 6:0.340603 7:-0.982521 8:0.119149 9:-1 10:0.117277 11:-0.885372 12:-0.900703 
48.26588826857638 9.668768330966394 1.08881324524348 1:0.245207 2:-0.984325 3:-0.287902 4:-0.976577 5:-0.220699 6:0.225048 7:-0.137145 8:-0.617723 9:-1 10:-0.295597 11:-0.861801 12:-1 
0 0 0.2876084016124251 1:-0.590911 2:-0.00452019 3:-0.378785 4:-0.821438 5:-0.0748486 6:-0.685189 7:-0.812933 8:-0.691939 9:-0.660515 10:-0.319981 11:-0.945205 12:0.308035 
10.56670360805743 0 0 1:-0.973297 2:-0.83326 3:0.406676 4:-0.993966 5:1 6:-0.998855 7:-0.560096 8:-0.295569 9:-1 10:-0.410452 11:-0.998424 12:0.313267 
0 0 0.1406910222791304 1:-0.233237 2:-0.580537 3:-0.973742 4:0.0443354 5:-0.999981 6:0.245002 7:-0.999659 8:-0.803365 9:0.258983 10:-0.997986 11:-0.658122 12:-0.99998 
28.9538532801168 1.342481141774339 0 1:0.0158717 2:-1 3:-0.161599 4:-0.933754 5:0.12226 6:-0.506665 7:-0.670465 8:0.368663 9:-0.764291 10:-0.303185 11:-1 12:-0.66762 
72.21470251254395 0 0 1:0.164544 2:-0.980605 3:-0.113975 4:-0.711582 5:-1 6:0.130001 7:-0.555211 8:0.521512 9:-0.652965 10:-0.926149 11:-0.73882 12:-0.979938 
19.19812736793158 0 0 1:-0.0879729 2:-0.32982 3:-0.54159 4:-0.872292 5:-0.28395 6:-0.0264956 7:-0.516656 8:-0.267109 9:-0.590975 10:-0.591562 11:-0.861085 12:-0.785332 
28.27669187042407 0 0 1:-0.255373 2:-0.744086 3:-1 4:-0.0118538 5:-0.882018 6:0.0219749 7:-0.691798 8:0.360512 9:0.00192441 10:-0.993948 11:-0.826387 12:-0.997348 
0 0 0.293223549210675 1:-0.15754 2:-0.921604 3:-0.272646 4:-0.95833 5:0.312273 6:-0.520639 7:-0.882563 8:0.241483 9:-1 10:-0.13939 11:-0.9833 12:-0.277271 
0 10.69191919852101 0 1:0.152297 2:-0.880692 3:-0.354954 4:-1 5:-0.560993 6:-0.907116 7:-0.176732 8:0.585308 9:-1 10:-0.284646 11:-0.820468 12:-0.56231 
2.407416230626359 0 0 1:-0.534977 2:-0.917637 3:-0.425451 4:0.0469353 5:-0.979731 6:0.00333066 7:-0.892319 8:-0.0430241 9:-0.47303 10:-0.898507 11:-0.556249 12:-0.936077 
28.84908150180301 0 0 1:0.404563 2:-0.87282 3:0.125289 4:-0.912033 5:-0.646421 6:0.282568 7:-0.900255 8:0.100929 9:-0.851077 10:-0.470362 11:-0.915717 12:-0.959718 
0.2883748038470336 0 0.02074314112709971 1:-1 2:-1 3:-0.963616 4:-1 5:-1 6:-1 7:-1 8:-1 9:-1 10:-1 11:1 12:-1 
0 0 0.3924192496640863 1:0.0537225 2:-0.548119 3:-0.503112 4:-0.860533 5:-0.32805 6:-0.209615 7:-0.869472 8:0.225755 9:-0.671011 10:-0.415311 11:-0.929024 12:-0.582134 
0 0 0.05612505474085922 1:-1 2:-1 3:-1 4:-1 5:-1 6:-1 7:-1 8:-1 9:-1 10:-1 11:-1 12:-1 
99.14284859906074 0 0.9851313053129355 1:0.515081 2:-0.999708 3:-0.382831 4:-0.999537 5:-0.468811 6:0.125682 7:-0.999659 8:0.76404 9:-1 10:-0.429771 11:-1 12:-0.48752 
10.37842733964105 0 0.4740337273693223 1:-0.597754 2:-0.947503 3:-0.98493 4:-0.85214 5:0.762284 6:-0.938139 7:-0.294517 8:-0.136718 9:-1 10:-0.5264 11:-0.970331 12:0.880786 
2.717045575548107 0 0 1:-1 2:0.639292 3:-1 4:-0.514923 5:-1 6:-0.784128 7:1 8:-1 9:-0.185192 10:-1 11:-0.804641 12:-0.104685 
17.24023807965596 0 0 1:0.07284 2:-0.995541 3:-0.420151 4:-0.754661 5:-0.420182 6:-0.08894 7:-0.565216 8:0.0478702 9:-1 10:-0.495733 11:-0.867619 12:-0.307202 
0 25.52596121717625 0 1:-0.182685 2:-0.992213 3:-0.271198 4:-0.788928 5:-0.239627 6:-0.368154 7:-0.674319 8:-0.00657562 9:-1 10:-0.0116356 11:-0.913068 12:-0.367242 
0 0 3.618419605692002 1:0.247335 2:-1 3:-0.430351 4:-1 5:-0.74112 6:-0.371695 7:-0.81791 8:0.7039 9:-1 10:-0.158593 11:-0.970107 12:0.0399087 
0 5.29326088685318 0 1:-0.987998 2:-0.151818 3:-0.230166 4:-0.899106 5:0.365705 6:-0.984125 7:-0.313724 8:-0.997808 9:-0.6291 10:0.265166 11:-0.998762 12:-0.160644 
-14.83951609725724 0 0 1:-0.0931897 2:-0.415327 3:-0.29079 4:-0.347132 5:-1 6:-0.239291 7:-0.0307015 8:-0.313498 9:-0.860654 10:-0.984754 11:-0.649964 12:-0.97886 
-37.14835907422015 0 0 1:0.0520423 2:-0.994849 3:-0.317434 4:-0.294092 5:-1 6:-0.136273 7:-0.978937 8:0.642776 9:-0.488323 10:-0.999275 11:-0.687314 12:-0.948909 
-15.03771471223624 0 0.4245607117504949 1:0.29283 2:-1 3:-0.261265 4:-0.993773 5:0.0136611 6:-0.585127 7:-1 8:-0.325211 9:0.103373 10:-0.329034 11:-1 12:-0.789486 
-0 0.03997063884584171 0 1:-0.374954 2:-0.574702 3:-0.399312 4:-0.133262 5:-0.918984 6:-0.66364 7:0.0387653 8:-0.990462 9:-0.774277 10:-0.885985 11:-0.543282 12:-0.523272 
-9.344512034857065 0.3640145017209123 0.2344067409521776 1:-0.811082 2:-0.628998 3:-0.229283 4:-0.994636 5:-0.518025 6:-0.985248 7:0.864117 8:-0.643683 9:-0.990111 10:-0.959817 11:-0.687597 12:0.739176 
-0 4.482880392292272 2.702623135954894 1:0.266052 2:-0.952223 3:-0.261888 4:-1 5:0.0469175 6:-0.939 7:-0.826323 8:0.0971788 9:-1 10:-0.363371 11:-0.678673 12:-0.725557 
-22.8813683475861 0.5749422182735372 0.1997562855463542 1:-0.431197 2:-0.998424 3:-0.164881 4:-0.999826 5:0.922476 6:-1 7:-0.694891 8:-0.173004 9:-1 10:-0.464421 11:-0.99996 12:0.490616 
-1.547497265323064 0 0 1:-0.254557 2:-0.964623 3:-0.445377 4:0.0837291 5:-1 6:-0.505086 7:-0.722574 8:0.330973 9:-0.338412 10:-0.995972 11:-0.65644 12:-0.951105 
-66.1324700676753 0 0 1:0.317463 2:-0.956728 3:-0.429289 4:-0.505792 5:-1 6:-0.0220348 7:-0.740565 8:0.604709 9:-0.387158 10:-0.987126 11:-0.818193 12:-0.917252 
-128 0 2.508549943008396 1:0.416997 2:-0.927754 3:-0.313432 4:-0.99452 5:-0.264787 6:0.149483 7:-0.998663 8:0.434548 9:-0.998808 10:-0.469124 11:-0.965722 12:-0.543605 
-8.798474068657187 1.188696324567483 0 1:-0.98914 2:-0.53984 3:-0.785925 4:0.423778 5:-0.999851 6:-0.583832 7:0.257533 8:-0.983552 9:-0.748016 10:-0.902887 11:-0.446421 12:-0.73151 
-0 22.66889164855744 0 1:0.0853058 2:-0.9995 3:-0.085846 4:-0.997516 5:0.293513 6:-0.282253 7:-0.913531 8:0.05847 9:-0.878683 10:-0.298069 11:-0.99997 12:-0.522637 
-0 0 0.08324351101998825 1:-0.421915 2:-1 3:-0.877877 4:1 5:-1 6:-0.279057 7:-1 8:-0.26615 9:-0.194053 10:-1 11:-0.725587 12:-1 
-79.92348880499881 0 0 1:0.290387 2:-0.94728 3:-0.25589 4:-0.967576 5:-0.22047 6:0.306945 7:-0.238063 8:-0.0658419 9:-0.99593 10:-0.551514 11:-0.923304 12:-1 
-0 0 1.181565007827314 1:0.533825 2:-0.730634 3:-0.504397 4:-0.961137 5:-0.231244 6:-0.167798 7:-0.613869 8:0.0674686 9:-0.553395 10:-0.59346 11:-0.982816 12:-0.862782 
-0 -0 2.569251779540267 1:0.00286709 2:-0.984348 3:-0.257293 4:-0.9955 5:-0.0950808 6:-0.31913 7:-0.855008 8:-0.19869 9:-0.770893 10:0.240611 11:-0.981851 12:-0.585885 
-15.35645694810505 -0 0 1:-0.448906 2:-0.75664 3:0.850453 4:-1 5:-0.633521 6:-0.41188 7:-1 8:-0.484293 9:-0.999075 10:0.627103 11:-0.810037 12:-0.999087 
-26.54121572223446 -5.195169743465184 0.5305715390559188 1:-0.0211951 2:-0.985771 3:-0.157709 4:-0.898947 5:-0.248687 6:-0.700113 7:-0.218693 8:0.294285 9:-0.893079 10:0.105959 11:-0.999558 12:-0.870944 
-0 -0 1.77168277417901 1:-0.0407393 2:-1 3:-0.4426 4:-1 5:0.240925 6:-0.289663 7:-0.763974 8:-0.0880517 9:-0.999075 10:0.153196 11:-1 12:-0.460486 
-81.61319752196123 -24.1242259807923 0 1:-0.074803 2:-0.916761 3:-0.23295 4:-0.999879 5:0.263202 6:-0.381155 7:-0.888031 8:-0.1635 9:-0.968608 10:0.145623 11:-0.984743 12:-0.521763 
-7.357208302252015 -7.33470533605962 -4.871506092775196 1:1 2:-0.97301 3:-0.770966 4:-0.931458 5:-0.374659 6:-0.641942 7:-1 8:-0.0420908 9:-0.957987 10:-0.157264 11:-0.981761 12:-0.125077 
