svm_type c_svc
kernel_type rbf
gamma 0.0078125
nr_class 4
total_sv 168
rho 20.501 22.5193 20.7431 -3.63966 -16.5454 0.184361
label 2 1 4 3
nr_sv 76 31 43 18
SV
2048 2048 0 1:0.308304 2:-0.962386 3:0.0223125 4:-0.942147 5:-0.609343 6:0.765963 7:-1 8:-0.560636 9:-1 10:-0.409002 11:-0.792296 12:-1 
841.9846790859867 1035.538014617717 0 1:-0.994122 2:-0.549657 3:0.172646 4:-0.979042 5:-0.326894 6:-0.999199 7:0.391283 8:-0.644554 9:-0.691499 10:-0.383934 11:-0.976215 12:0.456438 
985.5094428979197 867.0542682985266 0 1:-0.0737628 2:-1 3:0.393046 4:-0.679969 5:-1 6:0.604931 7:-1 8:-0.262674 9:-1 10:-0.736671 11:-0.657566 12:-1 
0 2048 0 1:0.298868 2:-0.824381 3:-0.24926 4:-0.955937 5:-0.572961 6:-0.387435 7:0.311292 8:-0.190749 9:-0.975369 10:-0.525288 11:-0.98612 12:-0.772183 
868.8992260666062 165.3626914754414 0 1:-0.246599 2:0.258658 3:-1 4:-0.248766 5:-0.996539 6:-0.158397 7:-1 8:-0.587249 9:0.092786 10:-1 11:-0.682315 12:-1 
0 2048 0 1:0.0520423 2:-0.994849 3:-0.317434 4:-0.294092 5:-1 6:-0.136273 7:-0.978937 8:0.0459442 9:-0.488323 10:-0.999275 11:-0.687314 12:-0.948909 
0 2048 0 1:-0.175452 2:-0.3616 3:-0.961589 4:-0.0272119 5:-0.962282 6:-0.0375729 7:-0.784446 8:-0.547225 9:0.197209 10:-0.993007 11:-0.822777 12:-0.953467 
0 960.9732358938468 0 1:-0.856123 2:0.679728 3:-0.930713 4:-0.443057 5:-0.994171 6:-0.339324 7:0.347686 8:-0.996337 9:-0.354091 10:-0.947456 11:-0.726244 12:-0.405368 
0 0 879.5980495085138 1:-0.385152 2:-0.920574 3:-0.00713063 4:-1 5:-0.4084 6:-0.991707 7:0.270688 8:0.0192979 9:-1 10:-0.365013 11:-0.98326 12:-0.0460272 
1928.061041793327 1030.936655449657 0 1:0.107821 2:-0.999992 3:0.135438 4:-0.990609 5:-0.763266 6:0.68932 7:-0.999431 8:-0.720999 9:-0.999915 10:-0.328505 11:-0.620954 12:-0.99748 
1753.267434603546 0 0 1:-0.570865 2:-0.947872 3:-0.0701222 4:-0.848469 5:-0.298813 6:-0.997785 7:0.00306837 8:-0.0202355 9:-1 10:-0.342039 11:-0.994941 12:0.249979 
2048 2048 0 1:0.154676 2:-1 3:-0.112951 4:-0.972593 5:-0.160177 6:-0.325844 7:-0.94947 8:0.024215 9:-0.942194 10:-0.306422 11:-0.987666 12:-0.443897 
0.1652979828566152 0.3925412009807847 0.02239733845072874 1:-1 2:-1 3:-1 4:-1 5:-1 6:-1 7:-1 8:-1 9:-1 10:-1 11:-1 12:-1 
613.9899419664782 433.4094121802845 126.0238140617902 1:-0.973159 2:-0.0900502 3:-0.981143 4:-0.788156 5:0.330299 6:-1 7:0.206982 8:-0.988917 9:0.0308303 10:-0.83967 11:-0.98571 12:0.479933 
2048 0 0 1:-0.908499 2:0.867154 3:-1 4:-0.581212 5:-0.0575928 6:-1 7:-0.0275798 8:-1 9:-0.0365638 10:-0.742311 11:-0.995904 12:-0.0621203 
2048 1161.681834188491 0 1:-0.989038 2:0.697562 3:-1 4:-0.412327 5:-0.798368 6:-0.636838 7:0.254881 8:-1 9:-0.26969 10:-0.995182 11:-0.699833 12:-0.213606 
1249.654720548975 0 2048 1:0.0295217 2:-1 3:-0.168778 4:-1 5:-0.448268 6:0.340603 7:-0.982521 8:-0.287445 9:-1 10:0.117277 11:-0.885372 12:-0.900703 
2048 2048 346.3864326468728 1:-0.447396 2:-0.999623 3:1 4:-0.999966 5:-0.318766 6:-1 7:-0.610164 8:-0.0293611 9:-0.999903 10:-0.310394 11:-0.999998 12:-0.0246689 
0 2048 0 1:-0.999877 2:0.0911649 3:-0.0632626 4:-0.98771 5:-0.514974 6:-0.81611 7:0.544424 8:-0.650949 9:-0.823692 10:-0.609214 11:-0.918834 12:0.299125 
2048 1685.19480535027 1968.944681823411 1:-0.16608 2:-0.986401 3:-0.0593353 4:-0.987136 5:0.115686 6:-0.0884609 7:-0.962269 8:-0.531891 9:-0.924772 10:0.00486872 11:-0.984968 12:-0.340578 
96.09670636163509 0 0 1:-0.458049 2:-0.274786 3:-1 4:0.0645797 5:-1 6:0.655452 7:-1 8:-0.379623 9:0.0402536 10:-1 11:-0.869111 12:-1 
0 2048 0 1:-0.973297 2:-0.83326 3:0.406676 4:-0.993966 5:1 6:-0.998855 7:-0.560096 8:-0.551494 9:-1 10:-0.410452 11:-0.998424 12:0.313267 
0 478.9955300699314 2048 1:-0.973729 2:-0.185728 3:-0.0998103 4:-0.945287 5:-0.0122941 6:-0.845435 7:0.365584 8:-0.980986 9:-0.405823 10:-0.0262065 11:-0.996879 12:-0.458998 
0 0 438.2780160145131 1:-0.577863 2:-0.867208 3:-0.474241 4:-0.829542 5:-0.195689 6:-0.228229 7:-0.199892 8:-0.435816 9:-0.580598 10:-0.510193 11:-0.89476 12:-0.170949 
0 2048 2048 1:-0.215176 2:-0.99804 3:0.19252 4:-0.627605 5:-1 6:0.0153884 7:-1 8:0.263568 9:-1 10:-0.77474 11:-0.596591 12:-0.987657 
2048 2048 712.4559419676202 1:-0.970972 2:-0.0175119 3:-0.0671527 4:-0.949864 5:-0.0254363 6:-0.925872 7:0.169038 8:-0.99227 9:-0.613364 10:0.0553332 11:-0.997771 12:-0.210755 
0 2048 2048 1:0.0158717 2:-1 3:-0.161599 4:-0.933754 5:0.12226 6:-0.506665 7:-0.670465 8:-0.128582 9:-0.764291 10:-0.303185 11:-1 12:-0.66762 
0 0 2048 1:-0.155823 2:-0.939262 3:-0.32834 4:-0.984039 5:0.046905 6:-0.539358 7:-0.547183 8:0.135935 9:-0.996435 10:-0.161599 11:-0.994728 12:-0.548843 
1733.021226008772 690.5763846776574 0 1:-0.999403 2:-0.11508 3:-0.374449 4:-0.743779 5:-0.071984 6:-1 7:0.247692 8:-1 9:0.0582829 10:-0.855308 11:-0.995418 12:0.356923 
1021.326557989269 2048 936.7086807576018 1:-0.999941 2:0.83396 3:-1 4:-0.478703 5:-0.999783 6:-0.51055 7:0.702592 8:-1 9:-0.240154 10:-0.999995 11:-0.720002 12:-0.501801 
1619.326932855666 2048 0 1:0.298868 2:-0.824381 3:-0.24926 4:-0.955937 5:-0.572961 6:-0.387435 7:0.311292 8:-0.190749 9:-0.975369 10:-0.525288 11:-0.98612 12:-0.772183 
1144.422314521991 1803.940966030585 64.4524602428608 1:-0.117385 2:-0.802534 3:-0.974603 4:0.0102669 5:-0.978612 6:0.326091 7:-0.999566 8:-0.700632 9:0.329693 10:-0.988113 11:-0.751922 12:-0.997632 
1234.663381312727 2048 0 1:-0.0102655 2:-0.552024 3:-0.21445 4:-0.821838 5:-0.457645 6:0.022903 7:-0.677185 8:-0.191267 9:-0.875532 10:-0.619072 11:-0.916764 12:-0.624765 
2048 0 0 1:-0.043481 2:-0.759377 3:0.213655 4:-0.979732 5:-0.46681 6:0.36183 7:-0.953352 8:-0.613405 9:-1 10:-0.201888 11:-0.783439 12:-0.932572 
0 2048 0 1:-1 2:0.168738 3:-0.597693 4:-0.544423 5:-0.0144316 6:-1 7:0.391069 8:-1 9:-0.485899 10:-0.635148 11:-0.922392 12:-0.0511468 
0 0 1878.709964924963 1:-0.810351 2:-0.954014 3:0.554211 4:-0.997323 5:-0.176184 6:-0.882701 7:-0.788123 8:0.186432 9:-0.986347 10:-0.106618 11:-0.989549 12:0.110095 
2048 123.2656078964586 66.49027647864199 1:-0.917364 2:-0.759338 3:0.5126 4:-0.993705 5:-0.19247 6:-1 7:0.0669246 8:-0.671778 9:-0.996509 10:0.105994 11:-0.993114 12:0.218626 
0 0 2048 1:-0.297086 2:-0.994465 3:0.383774 4:-0.998191 5:-0.314273 6:-0.0461578 7:-0.752376 8:-0.519592 9:-0.97932 10:-0.178622 11:-0.740269 12:-0.84139 
283.7230002276234 2048 0 1:0.0697942 2:-0.965291 3:-0.135809 4:-0.98498 5:-0.122838 6:-0.443255 7:-0.912998 8:0.209256 9:-1 10:-0.385344 11:-0.987491 12:-0.355111 
2048 2048 351.5191052343479 1:-0.15754 2:-0.921604 3:-0.272646 4:-0.95833 5:0.312273 6:-0.520639 7:-0.882563 8:-0.209556 9:-1 10:-0.13939 11:-0.9833 12:-0.277271 
386.3598240316611 0 0 1:-0.932507 2:0.311509 3:-0.315897 4:-0.990512 5:0.135564 6:-0.723899 7:0.0429109 8:-0.993753 9:-0.572827 10:-0.127241 11:-0.999116 12:-0.297895 
772.113350816368 0 0 1:-0.412116 2:-0.813104 3:-0.284724 4:-0.581999 5:-0.999975 6:0.289618 7:-0.155875 8:-0.426804 9:-1 10:-0.711487 11:-0.667585 12:-0.579237 
519.250110931344 2048 0 1:-0.521386 2:-0.909642 3:-0.46165 4:-0.161055 5:-0.874356 6:-0.39828 7:-0.501083 8:-0.290858 9:-0.489396 10:-0.927709 11:-0.606463 12:-0.661965 
2048 1127.164307272728 0 1:-0.251202 2:-0.973486 3:-0.263128 4:-0.884009 5:-0.0784713 6:-0.984559 7:-0.173482 8:-0.0011775 9:-0.99144 10:-0.286066 11:-0.999998 12:-0.0756867 
0 0 543.4445484141132 1:-0.664084 2:-0.537849 3:0.100516 4:-0.908739 5:-0.400789 6:-0.725935 7:0.149013 8:-0.500251 9:-0.882407 10:-0.333001 11:-0.807396 12:-0.507754 
0 2048 1084.759494667469 1:-0.254557 2:-0.964623 3:-0.445377 4:0.0837291 5:-1 6:-0.505086 7:-0.722574 8:-0.152578 9:-0.338412 10:-0.995972 11:-0.65644 12:-0.951105 
1517.764300685133 0 2048 1:-0.539484 2:-0.705142 3:0.539437 4:-0.961532 5:-0.705222 6:-0.0573623 7:-0.278333 8:-0.549106 9:-1 10:-0.346056 11:-0.759992 12:-0.648828 
0 1661.243695108266 0 1:-0.534977 2:-0.917637 3:-0.425451 4:0.0469353 5:-0.979731 6:0.00333066 7:-0.892319 8:-0.3907 9:-0.47303 10:-0.898507 11:-0.556249 12:-0.936077 
1622.028791624241 1182.877354633811 0 1:-0.982829 2:0.694803 3:-0.845509 4:-0.555262 5:-0.560782 6:-1 7:0.0340863 8:-0.99879 9:0.245717 10:-0.658178 11:-0.849456 12:-0.439492 
1562.604185270451 2048 0 1:-0.516473 2:-0.640399 3:-0.67136 4:-0.861083 5:-0.0162336 6:-0.58113 7:0.254859 8:-0.538078 9:-0.84498 10:-0.646336 11:-0.955918 12:0.286763 
364.6772470078789 945.1755442419614 495.2736376072261 1:-1 2:-1 3:-0.963616 4:-1 5:-1 6:-1 7:-1 8:-1 9:-1 10:-1 11:1 12:-1 
0 2048 0 1:0.0537225 2:-0.548119 3:-0.503112 4:-0.860533 5:-0.32805 6:-0.209615 7:-0.869472 8:-0.21957 9:-0.671011 10:-0.415311 11:-0.929024 12:-0.582134 
1882.742411078697 1583.666373765726 0 1:-0.0938618 2:-0.786775 3:-0.230671 4:-0.985838 5:-0.0686162 6:0.0316675 7:-0.40276 8:-0.244636 9:-0.910881 10:-0.470559 11:-0.978105 12:-0.644178 
2048 207.7087285342522 0 1:-0.456811 2:-0.965676 3:0.290649 4:-0.919076 5:-0.614358 6:-0.918732 7:0.0393128 8:-0.0946304 9:-1 10:-0.468701 11:-0.965698 12:0.291988 
0 2048 0 1:-0.0219739 2:-0.65409 3:-0.115772 4:-0.889898 5:-0.260897 6:-0.306616 7:-0.62376 8:-0.302922 9:-0.758302 10:-0.442681 11:-0.922759 12:-0.69804 
636.9913016550894 0 0 1:-0.895563 2:-0.242284 3:-0.984388 4:-0.533464 5:0.0874254 6:-0.710524 7:-0.378945 8:-0.897716 9:0.0517093 10:-0.613065 11:-0.919415 12:0.0652093 
0 2048 0 1:-0.321778 2:-0.860781 3:0.213485 4:-0.944862 5:-0.2013 6:-0.950624 7:-0.0190751 8:-0.0547427 9:-0.997491 10:-0.516149 11:-0.979059 12:-0.163825 
0 0 241.2992973595545 1:-0.0348024 2:-0.984087 3:0.0057201 4:-1 5:-0.778036 6:0.715494 7:-1 8:-0.0881215 9:-1 10:0.034076 11:-0.936416 12:-0.918681 
1960.158556346352 0 2048 1:-0.28486 2:-0.980743 3:0.355897 4:-0.370618 5:-0.993805 6:-0.499053 7:-0.698454 8:-0.0138519 9:-1 10:-0.387216 11:-0.797387 12:-0.7582 
9.506633423352724 27.78380588762522 10.29123597575078 1:-1 2:-1 3:-1 4:-1 5:-1 6:-1 7:-1 8:-1 9:-1 10:-1 11:-1 12:-1 
201.4317171757482 0 0 1:-1 2:-0.125897 3:0.261859 4:-0.983402 5:-0.217816 6:-0.968183 7:0.136989 8:-0.504988 9:-0.945515 10:-0.302877 11:-0.971263 12:0.122458 
0 1405.678753059903 0 1:-0.123727 2:-0.55892 3:-0.504998 4:-0.86595 5:-0.213914 6:-0.269836 7:-0.831293 8:-0.14934 9:-0.631666 10:-0.39783 11:-0.93387 12:-0.585541 
427.6166520272981 2048 0 1:-0.910659 2:-1 3:-0.0170415 4:-0.829402 5:0.475876 6:-1 7:-0.503379 8:-0.272994 9:-0.969232 10:-0.66278 11:-1 12:1 
0 0 2048 1:0.115444 2:-0.979798 3:-0.119862 4:-0.975381 5:-0.615489 6:0.141819 7:-0.528922 8:-0.303892 9:-0.945776 10:-0.268026 11:-0.796424 12:-1 
13.80469867644051 0 0 1:-0.784539 2:-0.0101397 3:-0.696274 4:-0.606377 5:-0.735279 6:-0.624735 7:0.304636 8:-0.768 9:-0.412896 10:-0.892626 11:-0.800122 12:0.093784 
1617.964580319058 2048 0 1:-0.740671 2:-0.80547 3:-0.716883 4:-0.946657 5:0.681231 6:-0.954553 7:-0.290357 8:-0.455566 9:-0.904234 10:-0.421932 11:-0.857234 12:0.308776 
0 0 255.1672568049195 1:-0.653992 2:-0.692173 3:-0.442266 4:-0.616024 5:-0.877072 6:0.147971 7:-0.0128886 8:-0.578413 9:-0.817113 10:-0.752793 11:-0.643597 12:-0.388805 
1866.916184157056 2048 1059.420204767225 1:-0.507064 2:-0.454179 3:0.378904 4:-0.985491 5:-0.54206 6:-0.997021 7:0.879996 8:-0.533586 9:-0.97697 10:-0.363009 11:-0.992821 12:-0.406942 
0 2048 0 1:0.07731 2:-0.675338 3:-0.410811 4:-0.874748 5:-0.360691 6:-0.0712762 7:-0.79982 8:-0.260576 9:-0.647833 10:-0.491962 11:-0.936016 12:-0.570499 
64.70555995643909 1204.273751138929 505.7114242170186 1:-1 2:-0.33966 3:-1 4:-0.279313 5:0.330423 6:-1 7:0.0313059 8:-1 9:-0.285874 10:-0.567394 11:-1 12:0.282093 
1028.368693325579 0 0 1:-0.1201 2:-0.946673 3:-0.0355864 4:-0.88863 5:-0.511761 6:0.405061 7:-0.64963 8:-0.4561 9:-1 10:0.0692898 11:-0.967569 12:-0.793283 
0 2048 251.007871999423 1:-0.22483 2:-0.716373 3:-0.130367 4:-0.458131 5:-0.973479 6:-0.194743 7:0.376919 8:-0.589315 9:-0.983299 10:-0.743287 11:-0.7009 12:-0.968707 
2048 1430.525414012101 1988.906182088725 1:0.247335 2:-1 3:-0.430351 4:-1 5:-0.74112 6:-0.371695 7:-0.81791 8:0.0848615 9:-1 10:-0.158593 11:-0.970107 12:0.0399087 
0 565.4006785965604 0 1:-0.414479 2:-1 3:0.844477 4:-0.970022 5:-0.150142 6:-1 7:-0.715847 8:0.263072 9:-1 10:-0.492707 11:-1 12:-0.164043 
1181.473083808025 2048 2048 1:-0.262462 2:-0.931021 3:0.232698 4:-1 5:0.245368 6:-0.295598 7:-0.99803 8:-0.477126 9:-0.899556 10:0.0317952 11:-0.994941 12:-0.531368 
2048 0 0 1:-1 2:-0.704812 3:0.714403 4:-0.990922 5:-0.0833429 6:-1 7:-0.0736373 8:-0.192919 9:-0.978638 10:-0.0896257 11:-0.992437 12:-0.241943 
-2048 2048 1950.297433539657 1:-0.44387 2:-0.978037 3:0.453187 4:-0.456032 5:-1 6:-0.451039 7:-0.595338 8:-0.181929 9:-0.998393 10:-0.521285 11:-0.717964 12:-0.547864 
-2048 2048 0 1:-0.307642 2:-0.457008 3:-0.500069 4:-0.285849 5:-0.519044 6:-0.275472 7:-0.731491 8:-0.464119 9:-0.587325 10:-0.568799 11:-0.839513 12:-0.763756 
-2048 2048 0 1:-0.365251 2:-0.965284 3:-0.248785 4:-0.859901 5:0.0956774 6:-1 7:-0.359539 8:-0.243442 9:-0.994011 10:-0.649573 11:-0.994487 12:0.770536 
-2048 2048 1948.728020117923 1:0.243798 2:-0.809898 3:-0.178058 4:-0.98565 5:-0.26798 6:-0.329144 7:-0.361203 8:0.0473561 9:-0.984894 10:-0.536626 11:-0.994803 12:-0.724009 
-2048 2048 1062.062807649871 1:-0.609521 2:0.307957 3:-0.993875 4:-0.525674 5:-0.99762 6:0.3751 7:-0.578137 8:-0.994385 9:-0.282905 10:-0.993127 11:-0.426947 12:-0.998538 
-2048 2048 444.2586161827031 1:-0.983672 2:-0.270335 3:0.244695 4:-1 5:-0.276177 6:-0.998376 7:0.40421 8:-0.500327 9:-0.949188 10:-0.219394 11:-0.978643 12:0.0180411 
-2048 1515.177804159031 2048 1:-0.402312 2:-1 3:0.842799 4:-0.722604 5:-1 6:0.337198 7:-1 8:-0.30399 9:-1 10:-0.735977 11:-0.550915 12:-1 
-2048 2048 802.754543314257 1:0.245207 2:-0.984325 3:-0.287902 4:-0.976577 5:-0.220699 6:0.225048 7:-0.137145 8:-0.756607 9:-1 10:-0.295597 11:-0.861801 12:-1 
-2048 799.1528666448402 146.9845589059045 1:0.121647 2:-0.997363 3:-0.160218 4:-0.981246 5:-0.57344 6:1 7:-0.983951 8:-0.417374 9:-1 10:-0.267815 11:-0.835285 12:-1 
-2048 2048 0 1:-0.960869 2:1 3:-0.916222 4:-0.954842 5:0.261624 6:-0.963003 7:0.0725138 8:-0.602093 9:-0.203102 10:-0.871636 11:-0.91795 12:-0.514792 
-2048 608.2213711046235 2048 1:-0.306074 2:-0.998662 3:0.0703969 4:-0.998307 5:0.0101751 6:-0.30473 7:-0.997547 8:-0.605795 9:-0.959667 10:0.619279 11:-1 12:-0.547818 
-2048 2048 1792.649618287703 1:-0.62986 2:-0.884658 3:-0.590143 4:-0.751902 5:0.182 6:-0.986011 7:-0.258593 8:-0.237309 9:-0.982221 10:-0.224631 11:-0.949428 12:0.259465 
-2048 2048 635.218009532271 1:-0.484042 2:-0.977683 3:-0.0192538 4:-0.923026 5:-0.729953 6:-0.972921 7:-0.0239603 8:-0.350071 9:-0.8212 10:-0.352617 11:-0.799572 12:0.249781 
-2048 2048 1167.648217452558 1:-0.2574 2:-0.696509 3:-0.629638 4:-0.692505 5:-0.153975 6:-0.576706 7:-0.409259 8:-0.302906 9:-0.699066 10:-0.568744 11:-0.911516 12:-0.197546 
-2048 2048 2048 1:0.00417395 2:-1 3:0.34246 4:-1 5:-0.0868848 6:-0.0152163 7:-1 8:-0.176287 9:-1 10:-0.264119 11:-1 12:-0.635315 
-2048 0 0 1:0.239387 2:-1 3:-0.461769 4:-1 5:-0.791806 6:-0.347392 7:-0.808993 8:0.106089 9:-1 10:-0.151539 11:-0.968908 12:0.0629736 
-2048 0 0 1:0.27008 2:-1 3:0.323009 4:-1 5:-0.754044 6:0.528056 7:-1 8:-0.246211 9:-1 10:-0.163532 11:-0.947565 12:-0.937519 
-2048 2048 0 1:0.404563 2:-0.87282 3:0.125289 4:-0.912033 5:-0.646421 6:0.282568 7:-0.900255 8:-0.299046 9:-0.851077 10:-0.470362 11:-0.915717 12:-0.959718 
-242.5897865395896 1171.179037153469 0 1:1 2:-0.97301 3:-0.770966 4:-0.931458 5:-0.374659 6:-0.641942 7:-1 8:-0.390106 9:-0.957987 10:-0.157264 11:-0.981761 12:-0.125077 
-2048 906.8788943930739 750.6472025306448 1:-0.999915 2:-0.505969 3:0.885591 4:-0.987922 5:-0.201374 6:-0.99979 7:0.326687 8:-0.807725 9:-0.999773 10:0.207426 11:-0.986894 12:-0.45458 
-2048 668.9688285983405 0 1:-0.999835 2:-0.130755 3:-0.99314 4:-0.300686 5:-0.767671 6:-0.999948 7:-0.145394 8:-0.994957 9:1 10:-1 11:-0.910765 12:0.2288 
-2048 2048 2048 1:-0.235584 2:-0.996325 3:-0.195096 4:-0.997116 5:0.208061 6:-0.396933 7:-0.50424 8:-0.421544 9:-0.95856 10:-0.200947 11:-0.994113 12:-0.157025 
-2048 2048 0 1:-0.398237 2:-0.938124 3:0.441791 4:-0.987304 5:0.0198438 6:-1 7:-0.238021 8:-0.0320759 9:-1 10:-0.528666 11:-1 12:-0.075012 
-2048 2048 121.9412674026477 1:-1 2:0.639292 3:-1 4:-0.514923 5:-1 6:-0.784128 7:1 8:-1 9:-0.185192 10:-1 11:-0.804641 12:-0.104685 
-2048 2048 0 1:0.07284 2:-0.995541 3:-0.420151 4:-0.754661 5:-0.420182 6:-0.08894 7:-0.565216 8:-0.332828 9:-1 10:-0.495733 11:-0.867619 12:-0.307202 
-2048 869.5818263755497 0 1:-1 2:-0.664614 3:0.615243 4:-1 5:-0.282682 6:-1 7:0.411407 8:-0.704972 9:-0.907895 10:-0.140256 11:-1 12:0.215571 
-2048 2048 2048 1:-0.182685 2:-0.992213 3:-0.271198 4:-0.788928 5:-0.239627 6:-0.368154 7:-0.674319 8:-0.367493 9:-1 10:-0.0116356 11:-0.913068 12:-0.367242 
-2048 2048 2048 1:-0.673974 2:-0.895682 3:0.419817 4:-0.878177 5:-0.445112 6:-0.93159 7:-0.178559 8:0.0250872 9:-0.959797 10:-0.401304 11:-0.965019 12:0.0808526 
-2048 2048 1038.18107023788 1:-0.987998 2:-0.151818 3:-0.230166 4:-0.899106 5:0.365705 6:-0.984125 7:-0.313724 8:-0.998604 9:-0.6291 10:0.265166 11:-0.998762 12:-0.160644 
-2048 2048 0 1:-0.944867 2:-0.225656 3:0.193938 4:-0.935075 5:-0.126156 6:-0.990524 7:0.604049 8:-0.617145 9:-0.985155 10:-0.585338 11:-0.910521 12:-0.0246358 
-2048 701.2924067476972 0 1:-1 2:0.692589 3:-1 4:-0.801652 5:-0.108453 6:-0.498222 7:-0.30113 8:-1 9:0.164937 10:-0.968683 11:-0.794424 12:-0.231492 
-2048 -0 0 1:-0.0931897 2:-0.415327 3:-0.29079 4:-0.347132 5:-1 6:-0.239291 7:-0.0307015 8:-0.562909 9:-0.860654 10:-0.984754 11:-0.649964 12:-0.97886 
-2048 -2048 2048 1:-0.999835 2:-0.79437 3:0.78643 4:-0.992417 5:-0.535554 6:-1 7:0.260114 8:-0.232866 9:-1 10:-0.383309 11:-0.99141 12:0.399514 
-2048 -1585.993990691572 73.36968832019525 1:-0.681463 2:-0.0868984 3:-0.999941 4:-0.228936 5:-0.999925 6:0.255398 7:-0.443939 8:-0.88031 9:-0.704402 10:-0.974383 11:-0.323521 12:-0.999993 
-2048 -0 0 1:-0.552809 2:-0.275901 3:0.0276799 4:-0.99999 5:0.0604636 6:-0.372241 7:-0.616258 8:-0.00837331 9:-1 10:-0.508612 11:-0.99755 12:-0.376118 
-2048 -2048 2048 1:-0.280428 2:-0.999992 3:0.235571 4:-0.999995 5:0.363524 6:-0.496119 7:-0.967674 8:-0.413138 9:-0.980631 10:0.156509 11:-1 12:-0.559479 
-2048 -338.9368339658764 2048 1:-0.417525 2:-1 3:-0.120189 4:-0.663806 5:-0.997459 6:0.409125 7:-0.967012 8:0.196778 9:-0.992774 10:-0.567037 11:-0.593468 12:-0.998644 
-2048 -65.69100558054872 1086.039745802797 1:-0.100343 2:-0.992597 3:-0.464441 4:-0.506226 5:-0.839596 6:-0.258474 7:-0.996949 8:-0.203729 9:0.0259994 10:-0.825159 11:-0.73997 12:-0.737794 
-1448.265807460349 -0 0 1:0.337791 2:-1 3:0.00350036 4:-1 5:0.130804 6:-0.388475 7:-0.976022 8:-0.077355 9:-0.944283 10:-0.55958 11:-1 12:-0.467981 
-2048 -2048 0 1:-0.408025 2:-0.991436 3:0.0171083 4:-0.835923 5:0.306345 6:-0.978796 7:-0.273383 8:-0.171146 9:-1 10:-0.553589 11:-0.994774 12:0.0472707 
-2048 -0 521.2358333108533 1:-0.922399 2:0.229069 3:-0.980594 4:-0.125477 5:-0.998801 6:-0.843474 7:0.580654 8:-0.993698 9:0.0337254 10:-0.994663 11:-0.677315 12:-0.646818 
-2048 -359.960694086418 728.5004292417957 1:-1 2:-0.410538 3:-0.894848 4:-1 5:0.876991 6:-1 7:0.134194 8:-0.961579 9:-0.431698 10:-0.247469 11:-0.917689 12:-0.00772907 
-2048 -2048 0 1:-0.960538 2:0.728742 3:-0.954269 4:-0.517407 5:-0.390213 6:-0.999775 7:0.066697 8:-0.993387 9:0.188916 10:-0.7343 11:-0.970909 12:-0.104103 
-2048 -2048 2048 1:0.0619264 2:-0.937071 3:0.518465 4:-0.969882 5:-0.634615 6:-0.0252307 7:-0.498117 8:-0.524924 9:-1 10:-0.386502 11:-0.772214 12:-1 
-2048 -1817.965475653612 1067.010268705113 1:-0.999168 2:0.422907 3:-0.316892 4:-0.9899 5:-0.647409 6:-0.709985 7:0.901336 8:-0.999864 9:-0.43075 10:-0.482516 11:-0.986066 12:-0.022711 
-1287.518246791386 -1118.183916948149 0 1:-0.374954 2:-0.574702 3:-0.399312 4:-0.133262 5:-0.918984 6:-0.66364 7:0.0387653 8:-0.993927 9:-0.774277 10:-0.885985 11:-0.543282 12:-0.523272 
-1406.797192934079 -354.0767156091609 0 1:-0.811082 2:-0.628998 3:-0.229283 4:-0.994636 5:-0.518025 6:-0.985248 7:0.864117 8:-0.773136 9:-0.990111 10:-0.959817 11:-0.687597 12:0.739176 
-2048 -2048 0 1:-0.870488 2:-0.145046 3:-0.796712 4:-0.122071 5:-0.751615 6:-0.577702 7:0.0630989 8:-0.792041 9:-0.457016 10:-0.923812 11:-0.688503 12:-0.303504 
-0 -0 133.6373209839293 1:0.266052 2:-0.952223 3:-0.261888 4:-1 5:0.0469175 6:-0.939 7:-0.826323 8:-0.301434 9:-1 10:-0.363371 11:-0.678673 12:-0.725557 
-2048 -109.4255322415579 586.3499262729399 1:0.164544 2:-0.980605 3:-0.113975 4:-0.711582 5:-1 6:0.130001 7:-0.555211 8:-0.0312636 9:-0.652965 10:-0.926149 11:-0.73882 12:-0.979938 
-2048 -0 0 1:-0.431197 2:-0.998424 3:-0.164881 4:-0.999826 5:0.922476 6:-1 7:-0.694891 8:-0.473457 9:-1 10:-0.464421 11:-0.99996 12:0.490616 
-2048 -1286.193442900054 0 1:-0.0879729 2:-0.32982 3:-0.54159 4:-0.872292 5:-0.28395 6:-0.0264956 7:-0.516656 8:-0.533373 9:-0.590975 10:-0.591562 11:-0.861085 12:-0.785332 
-2048 -0 0 1:-0.255373 2:-0.744086 3:-1 4:-0.0118538 5:-0.882018 6:0.0219749 7:-0.691798 8:-0.133771 9:0.00192441 10:-0.993948 11:-0.826387 12:-0.997348 
-2048 -2048 2048 1:-0.306074 2:-0.998662 3:0.0703969 4:-0.998307 5:0.0101751 6:-0.30473 7:-0.997547 8:-0.605795 9:-0.959667 10:0.619279 11:-1 12:-0.547818 
-2048 -1656.449902046575 2048 1:-0.417525 2:-1 3:-0.120189 4:-0.663806 5:-0.997459 6:0.409125 7:-0.967012 8:0.196778 9:-0.992774 10:-0.567037 11:-0.593468 12:-0.998644 
-2048 -2048 1072.015023373002 1:-0.708928 2:-0.985794 3:0.155682 4:-0.693504 5:-0.343783 6:-0.990053 7:-0.318552 8:-0.137522 9:-1 10:-0.595121 11:-0.805121 12:0.230414 
-2048 -2048 1526.002352811745 1:-0.617843 2:-0.478602 3:-0.0617036 4:-0.877343 5:0.151651 6:-0.747813 7:-0.0988882 8:-0.564408 9:-0.800338 10:-0.303421 11:-0.96612 12:-0.386999 
-2048 -2048 0 1:-0.0945499 2:-0.97703 3:0.659133 4:-0.98469 5:-0.217301 6:-0.764376 7:-1 8:-0.280659 9:-0.970742 10:-0.485875 11:-0.993663 12:0.328103 
-2048 -2048 2048 1:-0.474728 2:-0.290468 3:-0.383083 4:-0.801011 5:-0.292115 6:-0.369105 7:-0.210238 8:-0.699144 9:-0.469402 10:-0.476324 11:-0.899741 12:-0.516836 
-2048 -2048 2048 1:0.152297 2:-0.880692 3:-0.354954 4:-1 5:-0.560993 6:-0.907116 7:-0.176732 8:0.00935456 9:-1 10:-0.284646 11:-0.820468 12:-0.56231 
-2048 -2048 2048 1:0.036648 2:-0.989499 3:-0.0807532 4:-0.877063 5:-0.263053 6:-0.254343 7:-0.943994 8:-0.185418 9:-0.785863 10:-0.380435 11:-0.939696 12:-0.413451 
-2048 -0 0 1:0.317463 2:-0.956728 3:-0.429289 4:-0.505792 5:-1 6:-0.0220348 7:-0.740565 8:0.0217074 9:-0.387158 10:-0.987126 11:-0.818193 12:-0.917252 
-2048 -2048 0 1:0.416997 2:-0.927754 3:-0.313432 4:-0.99452 5:-0.264787 6:0.149483 7:-0.998663 8:-0.0866332 9:-0.998808 10:-0.469124 11:-0.965722 12:-0.543605 
-2048 -0 2013.174097882331 1:0.0853058 2:-0.9995 3:-0.085846 4:-0.997516 5:0.293513 6:-0.282253 7:-0.913531 8:-0.326079 9:-0.878683 10:-0.298069 11:-0.99997 12:-0.522637 
-2048 -2048 0 1:-0.994847 2:-0.214171 3:0.686415 4:-0.959082 5:-0.431205 6:-0.994169 7:-0.246774 8:-0.488236 9:-0.919408 10:-0.0712232 11:-0.983459 12:0.0725646 
-2048 -2048 463.5498790295847 1:0.515081 2:-0.999708 3:-0.382831 4:-0.999537 5:-0.468811 6:0.125682 7:-0.999659 8:0.123152 9:-1 10:-0.429771 11:-1 12:-0.48752 
-2048 -2048 0 1:-0.597754 2:-0.947503 3:-0.98493 4:-0.85214 5:0.762284 6:-0.938139 7:-0.294517 8:-0.450354 9:-1 10:-0.5264 11:-0.970331 12:0.880786 
-1489.969187592768 -315.6100544034015 0 1:-0.421915 2:-1 3:-0.877877 4:1 5:-1 6:-0.279057 7:-1 8:-0.532763 9:-0.194053 10:-1 11:-0.725587 12:-1 
-2048 -2048 0 1:-0.672667 2:0.409977 3:-0.358978 4:-0.999918 5:-0.395159 6:-0.790894 7:0.394177 8:-0.995524 9:-0.285908 10:-0.30981 11:-0.998157 12:-0.45161 
-915.817492819923 -0 0 1:0.151059 2:-1 3:-0.51309 4:-0.400244 5:-0.41961 6:-0.447881 7:-1 8:-0.218066 9:-0.192764 10:-1 11:-0.715662 12:-1 
-2048 -1902.010943763825 452.1912368176545 1:-0.793484 2:-0.400844 3:-0.273551 4:-0.981989 5:-0.231257 6:-0.998241 7:0.920471 8:-0.355048 9:-1 10:-0.508139 11:-0.941399 12:-0.0569279 
-2048 -425.9545272858663 826.4334767413643 1:-0.426817 2:-0.803303 3:0.0304119 4:-0.825012 5:-0.22257 6:-0.773507 7:-0.662081 8:0.0498256 9:-0.731599 10:-0.539511 11:-0.950097 12:-0.121333 
-2048 -2048 532.4543375574369 1:0.290387 2:-0.94728 3:-0.25589 4:-0.967576 5:-0.22047 6:0.306945 7:-0.238063 8:-0.405228 9:-0.99593 10:-0.551514 11:-0.923304 12:-1 
-894.4524259832075 -0 0 1:0.533825 2:-0.730634 3:-0.504397 4:-0.961137 5:-0.231244 6:-0.167798 7:-0.613869 8:-0.32035 9:-0.553395 10:-0.59346 11:-0.982816 12:-0.862782 
-2048 -1132.26682517005 -0 1:0.00286709 2:-0.984348 3:-0.257293 4:-0.9955 5:-0.0950808 6:-0.31913 7:-0.855008 8:-0.489811 9:-0.770893 10:0.240611 11:-0.981851 12:-0.585885 
-2048 -2048 -2048 1:-0.569628 2:-0.832469 3:0.38733 4:-0.935244 5:-0.0402749 6:-0.566385 7:-0.662103 8:-0.498054 9:-0.888679 10:0.151273 11:-0.968568 12:-0.462001 
-1513.616680758064 -594.6899078873385 -0 1:-0.448906 2:-0.75664 3:0.850453 4:-1 5:-0.633521 6:-0.41188 7:-1 8:-0.671653 9:-0.999075 10:0.627103 11:-0.810037 12:-0.999087 
-2048 -2048 -2048 1:-0.335396 2:-0.976184 3:-0.1637 4:-0.996542 5:-0.0460227 6:-0.651852 7:-0.495636 8:-0.271735 9:-0.901202 10:-0.0724064 11:-0.960207 12:-0.120646 
-2048 -2048 -2048 1:-0.214594 2:-0.566561 3:-0.156284 4:-0.878592 5:-0.634503 6:0.344817 7:-0.661043 8:-0.568104 9:-0.871808 10:-0.502258 11:-0.719982 12:-0.792297 
-958.8565741652998 -328.3474504847068 -2048 1:0.29283 2:-1 3:-0.261265 4:-0.993773 5:0.0136611 6:-0.585127 7:-1 8:-0.570366 9:0.103373 10:-0.329034 11:-1 12:-0.789486 
-2048 -2048 -2048 1:0.114798 2:-0.996817 3:-0.0900108 4:-0.995529 5:-0.301057 6:-0.318509 7:-0.543421 8:-0.068382 9:-0.975005 10:-0.417521 11:-0.98211 12:-0.342146 
-2048 -375.9128356455775 -2048 1:-0.999109 2:0.168531 3:-0.00455455 4:-1 5:-0.380786 6:-0.512668 7:0.670721 8:-0.999324 9:-0.133993 10:-0.564902 11:-0.988875 12:-0.540972 
-2048 -0 -1074.663557442385 1:-0.0211951 2:-0.985771 3:-0.157709 4:-0.898947 5:-0.248687 6:-0.700113 7:-0.218693 8:-0.175938 9:-0.893079 10:0.105959 11:-0.999558 12:-0.870944 
-2048 -2048 -2048 1:-0.359469 2:-0.995749 3:-0.113092 4:-0.9098 5:-0.212945 6:-0.407703 7:-0.843439 8:-0.126843 9:-1 10:-0.112137 11:-0.997054 12:0.160214 
-2048 -2048 -2048 1:-0.0407393 2:-1 3:-0.4426 4:-1 5:0.240925 6:-0.289663 7:-0.763974 8:-0.419369 9:-0.999075 10:0.153196 11:-1 12:-0.460486 
-2048 -1377.95777767731 -1526.461421056529 1:-0.98914 2:-0.53984 3:-0.785925 4:0.423778 5:-0.999851 6:-0.583832 7:0.257533 8:-0.989528 9:-0.748016 10:-0.902887 11:-0.446421 12:-0.73151 
-2048 -2048 -1647.503174627388 1:-0.535212 2:-0.98594 3:0.624233 4:-0.883126 5:-0.795124 6:-0.344503 7:-0.102109 8:-0.105991 9:-0.987216 10:-0.706966 11:-0.774127 12:-0.441933 
-2048 -1908.196568289038 -1709.733391244695 1:-0.48465 2:-1 3:0.922703 4:-0.594839 5:-1 6:-0.328186 7:-1 8:0.16177 9:-1 10:-0.814923 11:-0.556291 12:-1 
-2048 -0 -2048 1:0.0603582 2:-1 3:-0.290641 4:-1 5:-1 6:0.24486 7:-1 8:0.207621 9:-1 10:-0.5271 11:-0.550017 12:-1 
-1492.397719977647 -0 -1027.602072479742 1:-0.154857 2:-1 3:0.221042 4:-0.927879 5:-1 6:0.00720771 7:-1 8:1 9:-1 10:-0.900924 11:-0.716603 12:-1 
-2048 -2048 -2048 1:-0.074803 2:-0.916761 3:-0.23295 4:-0.999879 5:0.263202 6:-0.381155 7:-0.888031 8:-0.467406 9:-0.968608 10:0.145623 11:-0.984743 12:-0.521763 
-2048 -2048 -2048 1:-0.943304 2:-0.272342 3:-0.117346 4:-0.951099 5:-0.135694 6:-0.911606 7:0.490224 8:-0.412745 9:-0.984792 10:-0.583904 11:-0.957749 12:0.264313 
